-0.056887582,-0.07687115,-0.06254879,0.050529487,0.04211208,0.04510543,-0.046871006,0.043277375,0.090036474,-0.08989217
-0.012438253,-0.029997455,-0.026919467,0.008841314,0.041426003,-0.008272468,-0.038064763,0.030534312,0.021487571,0.04057423
0.07700048,0.07906394,0.07987054,0.051071636,-0.03529188,0.04752593,0.077111125,0.015762186,-0.03376598,0.006181035
-0.058675565,-0.029492056,-0.030628512,-0.027139485,0.027660064,-0.08890786,-0.08434738,0.05827168,0.06574895,0.037078515
-0.03656772,0.029842192,0.21205322,-0.0059427307,-0.17632785,-0.17686887,0.019500794,0.11654933,-0.06285189,-0.11845339
-0.20854531,-0.12988855,-0.1577339,0.169526,-0.2230066,0.21442908,-0.1906195,-0.06530959,-0.08056337,0.03654932
0.0028789763,0.10158467,0.07517051,0.059773866,-0.003900435,0.04659109,0.014427624,0.018230496,-0.04266228,0.036223654
0.020514194,-0.124182954,0.026870472,0.016760107,-0.06989292,-0.04083671,-0.043230582,0.065931424,-0.06940403,-0.001394177
0.055196885,-0.04464116,-0.037270155,-0.026986431,-0.05938666,0.07940453,-0.032473303,0.054640923,0.04687299,0.0866588
0.052613024,-0.085310504,-0.027481547,-0.046638936,0.037838437,0.07930442,-0.027959572,0.03174773,0.030675244,0.07394123
0.10666092,-0.08857997,-0.05664656,-0.020759193,0.06971871,0.047996543,-0.06351349,-0.005633126,-0.036865797,-0.012843392
0.007858765,-0.015356717,-0.009038499,0.029626483,-0.03937227,-0.0008816227,-0.015396063,0.03482061,0.00088091975,0.03625898
-0.063599445,-0.05139987,-0.0835548,0.058481157,0.059089575,0.068231046,0.06994021,-0.06246019,-0.029263163,0.054189153
-0.031239958,-0.010947211,-0.027698686,0.03483291,0.015840856,0.014666401,-0.022662826,-0.0028625461,0.014188565,0.007382244
-0.026649754,-0.036998004,-0.092624865,-0.024075061,0.03159693,0.036047023,-0.036338508,0.03517566,0.04696766,0.059543718
0.037012562,-0.031034894,-0.07435747,0.08547467,-0.08504016,0.09060462,0.027112199,-0.06748092,-0.07093929,-0.026419329
0.046839654,0.015816957,0.002911994,0.075224124,0.0116051175,0.006828182,-0.024898054,0.09006578,-0.047266204,0.063373014
-0.17239285,-0.04066686,-0.056818727,-0.18836975,0.22442044,-0.14734495,-0.122420214,-0.14833374,-0.16254896,0.26422617
0.015516103,-0.007694785,-0.00061571226,0.020731254,-0.015710004,0.049613997,0.0069960747,-0.02975856,0.035123102,0.03331951
0.08854099,-0.08817532,-0.007798303,-0.088390306,0.023636166,-0.20910741,0.07408475,0.07095999,-0.07362579,0.05493549
0.023018325,0.04887098,-0.06802627,-0.122054785,0.058883484,-0.079727225,-0.083707094,-0.051073205,0.006721374,-0.014034965
0.028704347,0.052783355,0.08520784,0.047236666,-0.080746,0.04699417,-0.009802216,0.010086066,-0.04535254,0.033174075
0.030283723,0.0073573017,0.018797725,0.023771258,-0.009262615,0.0072992076,0.062354777,0.057922423,-0.0501215,0.057433624
0.0005556675,-0.005884462,0.023596909,0.04162062,0.006788101,0.01833989,0.052086134,-0.019262258,0.02632751,0.017437562
0.0674937,0.041937348,-0.01010062,-0.031984407,0.023113467,-0.053155027,0.030838756,0.026895285,0.03296804,-0.0049013705
-0.018371623,0.025435776,0.010079379,0.04533084,-0.011192981,-0.014845462,-0.04736568,0.026549425,-0.0036493198,-0.030551773
0.03799567,0.0391698,0.027276376,0.04260771,-0.082530014,0.11732007,0.057119478,0.0023448379,-0.025463337,0.067468695
0.009083989,0.04317427,0.07107474,0.025787614,-0.0018078517,0.050356526,0.0068132556,0.043494627,-0.026310625,0.06576612
-0.026456386,0.09172479,0.015352511,0.015552431,-0.027357101,0.03247874,-0.022935444,0.0057149576,-0.0003857055,-0.05290026
0.049992085,0.07923366,0.049786847,0.0024768042,-0.05187056,0.039082967,0.058291666,0.0029277015,-0.0371811,0.06712461
0.024750635,-0.07238797,-0.041115835,0.047694616,-0.08030928,0.08771991,-0.08768688,-0.06547187,0.029549932,0.07177273
-0.03772808,-0.040729783,0.07737271,0.06699625,0.055919457,-0.05227154,0.031629547,-0.09493174,0.040692277,0.069306314
-0.006392175,-0.046052597,0.056860365,-0.04499257,0.062058814,0.015664076,0.058351707,-0.05555044,0.013680125,0.027200086
0.055337995,-0.049285717,0.014264211,0.03720179,-0.03994266,0.06731792,0.028954603,-0.041302044,-0.05742151,-0.08466924
-0.10654946,0.10703464,-0.00023223824,-0.07132568,0.20768432,-0.0068281703,0.025714204,0.10623184,-0.0896012,-0.21110329
-0.036290795,-0.046203274,0.0916661,-0.06349077,0.04662198,-0.07285165,-0.05957373,0.029650874,0.040919863,0.088131145
0.013983317,0.060024768,0.059734326,0.02696404,-0.056888595,0.040285837,0.06112527,0.012506807,-0.026651993,0.046693448
-0.16006695,-0.08150763,-0.18217126,-0.013542151,-0.08490725,0.1625696,-0.06443638,0.0615962,0.03982433,0.0031761767
-0.037113737,-0.024845742,0.025238054,0.005468925,-0.035457823,0.008276332,-0.042481188,0.028219912,0.018860165,0.031575453
0.04048418,0.009693255,0.03575674,0.049984273,-0.03785283,0.07400289,0.049966767,-0.012159374,-0.030500669,0.061064586
-0.0026293185,-0.06452456,-0.05649538,0.018186582,0.060655635,0.027540358,-0.026948188,0.04207287,-0.0033297066,0.12395518
0.05482915,0.017471666,0.056215513,0.07658056,0.0010606276,0.04261217,0.023749683,0.014366994,-0.016487673,0.072302535
-0.10994284,0.11731248,-0.023409985,0.12029392,0.049049154,-0.07031383,-0.12798825,-0.11574034,0.051678192,-0.050773762
0.025880784,-0.066216946,-0.06474645,0.056662943,-0.03231425,0.05675495,-0.04922529,-0.02894881,0.04962613,-0.09213368
-0.011031288,-0.026325298,-0.01858367,0.0652803,-0.07132288,0.053573992,-0.02115911,0.023410417,-0.0016881351,-0.02595561
0.03339327,0.049371965,0.101866655,-0.0035674842,-0.025216317,0.032510664,0.1002424,0.044925027,-0.013166299,0.022727257
0.032539602,0.045437057,0.045568515,0.089057215,-0.07804122,0.08059854,0.038022507,0.008372345,-0.02549268,0.031879786
0.067233175,0.05574246,0.0952979,0.036270414,-0.0075559053,0.045006037,0.066434756,0.03470456,-0.029600918,0.02853143
0.03958837,-0.24902686,0.11948168,-0.18782963,0.0583627,-0.089818984,-0.009777423,0.10539218,-0.053772192,0.0588347
0.1412539,-0.045180097,-0.004020052,-0.13902836,-0.090192005,0.02000042,-0.043110993,-0.0663437,0.062326256,-0.004345695
0.01954528,-0.079482324,-0.0039799693,0.06475507,0.16383848,0.08573463,-0.2916037,0.023964675,-0.018224819,0.055138428
0.082055196,0.045690972,0.052548297,0.044679843,0.008304516,0.029454606,0.088164985,0.019078283,-0.025092002,0.054489348
-0.14960885,-0.07479902,0.08494925,0.20122856,-0.10980745,-0.20894602,-0.022628197,-0.031557146,0.058410384,0.037173256
-0.02870732,-0.047790863,0.091451,-0.083150476,0.07885749,-0.12556082,-0.0014884794,0.07065272,-0.02949828,0.0014863147
0.030234594,0.09438797,0.0324584,0.049764,-0.047915623,0.069748335,0.030674191,0.0063470006,-0.020072239,0.034641024
-0.033678606,0.067152984,0.061976746,-0.043995064,0.050182063,0.03677284,-0.05598893,-0.094488904,0.059920497,0.02771753
0.20971031,-0.14977655,0.06526803,-0.031715058,-0.23773126,-0.16398373,-0.029430179,-0.062649496,0.06454123,-0.053657047
-0.062227067,0.04219084,0.06943014,-0.03786719,-0.034934532,-0.05885264,-0.07432193,-0.08533522,0.033273913,-0.058170248
0.07608046,-0.09190737,0.057004783,-0.012290424,0.07710666,-0.10723479,-0.13401476,-0.027071668,-0.096270174,0.06884421
0.048029616,-0.049429793,-0.075304374,-0.07970445,0.027193708,-0.07506714,-0.097796075,0.049488723,-0.092174545,-0.02116837
0.017786229,0.016387634,0.06024173,0.05479815,0.0040420904,0.009366957,0.061002545,0.032171305,-0.00937823,0.03532606
-0.15030967,-0.10798104,0.006480947,0.26618794,-0.34951228,0.116892084,-0.17009579,-0.088565595,-0.1919862,-0.06316008
-0.06610767,-0.09242092,0.03178945,-0.08354713,-0.0722862,-0.040164005,0.04716706,-0.075146005,0.043126725,-0.038135614
0.0053023146,0.066733606,0.073309615,0.0672911,-0.019111207,0.026369711,0.051388294,0.02554404,-0.04761798,0.039946213
-0.074474014,0.0025224753,0.03516315,-0.033366546,-0.07047698,0.02151529,-0.009637515,0.01925602,0.068395846,0.059722878
-0.13168496,-0.022984304,-0.044152062,0.022412742,0.048465386,-0.043916803,0.041932944,0.025024168,0.09707072,0.08654456
0.030846808,-0.05802803,-0.036335055,-0.00039453866,0.06417573,0.06541708,-0.07506023,-0.05295684,-0.033714592,0.0342991
0.19326131,-0.06866515,-0.00692713,-0.03416866,-0.03889348,-0.19464928,-0.032131065,0.028974496,-0.06483863,0.001682447
-0.011836639,0.08131204,-5.0794202e-05,0.059307095,-0.06238436,0.027721187,0.021698806,0.0041031875,0.008371473,-0.02172116
0.060839046,-0.07051168,0.014875247,0.036887158,0.044334773,0.016582275,-0.01769546,0.006216477,0.05704917,-0.03415192
-0.19350682,-0.104993194,-0.1432697,0.052611906,-0.061382875,0.10491113,-0.06557167,-0.077378884,0.050026797,-0.04143924
0.052453592,-0.06568872,-0.033868782,-0.022421023,0.18095891,-0.07784684,-0.08404467,-0.025451252,0.106387675,0.08051618
0.058658827,-0.027299345,-0.06600499,-0.07385259,0.03590167,-0.07232747,0.079801165,-0.027408866,0.07950051,0.04178301
0.045198508,0.031718496,0.022871034,0.10552644,-0.0028544555,0.06819494,0.014911704,-0.07089477,-0.0077192998,-0.015313378
0.011749865,-0.02905153,0.03267845,0.036950774,0.02958531,0.02117795,-0.0066312444,-0.014113956,0.009388338,-0.06850224
0.028002026,0.017867243,0.04141882,0.04266304,-0.008422325,0.047329463,0.06713792,0.032592636,-0.033873092,0.0850451
0.056288537,-0.043300834,-0.08821676,-0.012681512,-0.039413482,0.14626843,0.0074668694,0.07088881,-0.004908835,-0.07083987
0.07774321,0.014248907,0.038790945,0.123188205,0.011907322,-0.033268306,0.16200125,-0.013425737,-0.04824694,0.03510504
0.05166448,0.06294716,0.06318455,0.0005790145,0.008276629,0.10728729,0.06837466,0.035085473,-0.028556509,0.021435402
-0.036557175,-0.05246892,-0.082817785,0.062485542,0.03263663,-0.053845923,-0.0956421,0.07041484,-0.06555333,0.047187094
0.06456633,-0.04777241,0.06565221,0.073672466,-0.030118681,-0.024981946,0.07493726,-0.0496639,0.03342072,-0.061221875
0.036055136,0.018678484,0.013864657,0.02529729,0.050745692,0.13436596,-0.0004702194,0.029174322,-0.0101511795,0.04044139
0.042712703,0.04070099,0.014601975,0.05651214,-0.032849684,0.019470861,-0.0020503888,0.029290533,-0.050524477,0.06527709
-0.048147634,0.07113947,0.05867966,-0.07149093,0.08647549,-0.03792461,-0.06134951,-0.028482407,0.03246795,-0.04292952
-0.036497284,-0.05747437,-0.031546738,-0.059756383,0.05549476,0.06426638,-0.028774539,0.030491855,-0.08006066,0.07205558
0.009869218,0.063153744,0.08199551,0.05149056,-0.009777779,0.03461464,0.07388045,0.061256044,-0.03626204,0.049671512
0.004944782,0.02927143,-0.003948234,0.0733638,0.018238306,-0.00029174308,0.055620115,0.08605273,0.021427814,-0.026941398
-0.053419348,-0.050398838,-0.059384044,0.031614725,0.06621393,0.07957438,-0.061690908,-0.055167537,0.044220984,0.04868967
-0.0019648906,-0.03527798,-0.0059498753,0.04997641,-0.026464326,0.020925649,-0.019964276,-0.0012513694,0.0073459246,-0.021202687
0.02760926,-0.03152473,-0.036894444,-0.013102538,0.010062871,0.030333024,0.010189291,0.04830871,-0.0010164988,0.002532805
-0.035645943,-0.08340183,-0.05384429,0.060702004,0.010998683,0.03763915,-0.016232895,-0.03995673,0.084992304,0.017296199
-0.09443354,-0.01726406,0.026368165,-0.011647213,0.07325985,-0.06939746,-0.027413914,0.012194484,0.051883742,0.04704017
0.019147228,-0.010846342,-0.030358145,0.03468892,0.048906095,0.017265776,-0.016090298,0.052484326,0.01514428,0.033654947
-0.030049624,0.11392942,-0.05991869,0.011599195,-0.09021037,0.09973081,0.061203275,-0.11618778,-0.17832835,0.16513795
-0.07161664,-0.052177936,0.056166876,0.058288924,0.021371247,-0.06005595,-0.08486728,-0.07154101,0.03733934,-0.033405166
-0.033950154,0.059365876,-0.031181712,-0.041582614,0.06395813,0.04487719,0.049967427,-0.059019797,0.03426994,-0.07093372
-0.052792795,0.065697186,0.063586175,-0.04387382,-0.10924265,-0.05800296,-0.041691978,-0.06129378,0.07969253,-0.06901323
0.067328095,-0.053296875,0.044883903,0.034865707,-0.029306721,-0.06698731,-0.025530916,-0.091007695,-0.07309641,-0.041026253
-0.051271524,-0.032325845,-0.03006301,-0.04332967,0.08932795,0.029258596,-0.09545309,0.07924703,0.086215675,0.04847101
0.0067749936,0.050689254,0.12850003,0.0418408,-0.016988536,0.090348095,0.06719075,0.047502354,-0.056072164,0.03214862
0.043966018,-0.0844644,-0.08396984,-0.00621826,-0.05217747,0.07381198,0.058253847,-0.042851586,0.027425595,0.059609707
-0.13841797,-0.20767699,0.06020092,0.051089555,-0.05849154,-0.044231843,-0.21585669,0.08595604,-0.08272726,0.07189036
0.053080354,0.02715733,-0.0027362697,-0.016577791,0.06871107,0.02006815,-0.015851485,0.04448215,0.021090956,0.017201023
-0.15332831,-0.02827002,-0.02342038,-0.118469335,0.08473515,-0.031074135,-0.0018642014,-0.00038731337,-0.11564533,0.070086904
0.091066405,-0.06897981,0.062765256,-0.09013122,-0.1926524,0.037302315,0.048162486,-0.16404471,0.09362629,-0.20219804
-0.010226055,-0.011113061,-0.0067673437,-0.056217674,-0.020413999,0.059366465,0.069821596,-0.015887696,0.022343032,-0.0024695236
0.021704007,-0.013677386,0.025283936,-0.0030265849,-0.03833986,-0.036150046,-0.034910854,0.19306675,-0.004240191,0.021613536
-0.040178616,-0.061454758,-0.06590122,0.072173774,0.026436986,0.028647799,-0.07247031,-0.08321986,-0.0042075026,-0.05162946
-0.0025353609,-0.065685816,0.028038215,0.03022846,0.031818494,-0.026703512,0.026992988,-0.019043809,0.013683967,-0.0053113997
-0.0816203,-0.02606379,-0.09197995,0.028133642,0.05721654,0.05893618,0.04301012,-0.080136,0.039758008,-0.027910165
-0.0022342224,-0.04061363,0.0015643899,0.109005906,0.030169224,-0.005495519,0.029109504,0.003890226,0.033834934,0.02230327
0.05863311,0.072616614,0.026368838,-0.06362074,-0.18908916,0.13737611,0.03063231,0.047673978,-0.053525783,-0.17459436
0.057410687,0.026276525,-0.04722879,0.011742491,0.00673467,-0.032537993,-0.013185226,-0.029597513,0.060384884,-0.032979935
0.12208893,-0.24173197,-0.025610277,-0.16116181,-0.04400071,-0.12145904,-0.026282921,0.065539636,-0.009727679,0.022408085
-0.09930972,-0.031252697,0.08177902,-0.031667046,0.055374973,0.036716297,-0.04585275,0.056377344,0.01824833,-0.07648269
-0.0062328414,-0.05638922,-0.050664842,-0.0039470876,-0.0048240535,-0.01570971,-0.05993155,0.018784413,-0.015501866,0.056315597
0.008334725,0.053039882,0.094913475,0.057703473,-0.028745651,0.036060233,0.036943838,0.041956946,-0.033641253,0.04591132
-0.005133943,-0.060607854,0.03720884,-0.01518639,0.025331,0.048456904,0.010541926,0.060100615,-0.010508899,-0.043937203
0.03789329,-0.02730492,-0.13274337,-0.12054644,0.06711586,-0.07100721,0.13178687,-0.08015088,-0.09214519,0.07613074
-0.017292386,-0.049162697,-0.0014493476,-0.17402512,0.08069667,0.050245583,0.026835937,0.06378189,0.07366338,-0.030856341
0.025403995,-0.016087208,-0.013252484,0.012012576,0.0026593786,0.012101845,-0.05535418,-0.0001236334,-0.03524725,0.025301527
-0.14537063,0.024406454,0.079563074,-0.11597365,0.13158914,0.067350335,-0.05246865,0.01865658,-0.07938906,0.021666018
0.004378649,0.05819145,0.035883658,0.05017949,-0.0151959965,0.027737014,0.013473226,0.034020368,-0.043556634,0.050971195
0.039544195,-0.039407324,-0.076370224,0.08265715,0.06655125,0.035027195,-0.042432167,0.0976969,0.015501441,-0.041072216
-0.04694941,0.011883556,-0.056963086,-0.016049683,0.0015840651,-0.13020438,-0.015968505,0.03885505,-0.08444269,0.111450665
-0.074119076,-0.05251952,-0.058654882,-0.030913105,0.040057372,0.03403807,-0.07693228,0.02885248,-0.086628325,0.03195598
-0.016667116,0.074727684,0.053341553,0.05592808,-0.012285103,-0.013106646,-0.0658111,-0.04586305,-0.015974361,0.052736614
0.011324596,0.07272402,0.034924198,0.045725893,-0.028437093,0.078771226,0.008315454,0.040845066,-0.04094343,0.06320819
0.054182492,0.007888031,0.08195518,0.069908775,0.009974172,0.04497967,0.05804007,0.036444467,-0.03355383,0.070220426
-0.048031703,-0.019187998,-0.08522728,0.023711689,-0.03663103,-0.027423002,0.020487314,-0.10242934,0.14049736,0.013856181
-0.06944931,0.00012288004,0.18341331,-0.07118679,0.07334894,0.081708446,-0.082712315,-0.23230007,-0.07275892,0.06456665
-0.043001946,0.04679944,0.02848608,0.052134514,0.03663566,-0.08271418,-0.06863972,0.033902235,0.018118272,-0.027384032
0.0037866177,0.033241834,0.027921231,0.021667251,0.020631572,-0.117223635,0.0058870926,-0.0072916853,0.09604022,-0.04084118
-0.07572139,0.015397134,0.07336329,0.09526618,-0.19242719,-0.03534743,-0.120285824,0.13799703,-0.060842637,-0.31042114
0.05824077,0.055746783,0.0017001067,0.0661957,-0.08458297,0.061259672,0.040242817,0.09694761,-0.032017507,0.038513917
-0.06231752,-0.025253478,0.088113725,-0.062118355,-0.0274863,-0.07144419,0.032160804,0.025147904,0.054967046,-0.024848497
-0.056225248,0.108749904,-0.0398207,0.041066896,-0.108991474,-0.025577778,-0.08037695,0.08652076,0.00037999387,0.0028629946
0.09074182,-0.009536506,-0.08522396,0.044918764,0.04756833,0.0036943965,0.004154845,0.014877748,0.07334743,-0.023840437
0.029540818,0.07934658,0.043580893,0.04659456,-0.011168911,0.08079187,0.061135825,0.013710388,-0.033640698,0.01754376
0.02126547,0.023896372,0.06687686,0.012372655,-0.04621851,0.07657691,0.041757587,0.03672742,-0.031065678,0.052009832
0.019531941,0.06942021,0.039426602,0.06471936,-0.024077712,0.017504489,0.015426307,-0.033536106,0.007892148,-0.034389056
0.037951063,0.014043635,0.05675985,0.02070404,0.019084286,0.09830521,0.06571694,0.052672453,-0.017255994,0.03992306
-0.11925112,0.011621194,0.076040104,0.021782314,0.0024479148,-0.016444536,-0.031096935,0.039096136,0.033421163,-0.015147488
-0.06057552,0.0133105265,0.0053242114,0.04812608,0.033369698,-0.09009912,-0.104299255,-0.0155302035,0.089382604,0.07148406
-0.025298148,0.11008799,-0.041468028,0.10643478,-0.027535073,0.15790689,-0.11994117,-0.045407463,-0.11807664,0.095116496
0.028511843,0.10516484,0.024571646,0.03721795,-0.04621939,0.060781702,0.0380278,0.06126516,-0.008581933,0.0826683
0.009445462,0.0084135095,0.009733622,0.038866937,-0.048550386,0.06837672,0.014180703,0.008594645,-0.054103166,0.05802162
0.058397282,0.055920333,0.043168645,0.05127945,-0.031585477,0.01795178,0.07688335,0.00053518906,-0.018810783,0.083848365
0.045214478,0.030516643,0.03630098,0.009869802,-0.030005366,0.031693377,0.066479124,0.053888522,-0.018716488,0.09940006
0.04890016,0.009752312,0.085960105,0.065554544,-0.039347555,0.059078332,0.081709705,-0.0028706952,-0.011029421,0.035345033
-0.15444213,-0.046365183,0.013852242,-0.04590754,0.12584752,-0.043241184,-0.055082403,0.019686366,0.046618115,0.0043647685
0.0114891175,-0.029718453,-0.008742848,-0.019479409,0.0061377664,-0.0048427116,-0.0049135913,0.0046929526,0.0017069166,-0.010944334
-0.08081766,3.5189103e-05,-0.19975764,0.1358688,0.21427035,0.10985324,-0.08278138,-0.014138136,-0.09237496,0.21564427
-0.14428736,-0.15480696,-0.23485553,0.06902027,0.0037000233,-0.13708746,-0.074377574,0.03946436,0.040608287,0.10470317
0.04033108,0.036883082,0.0028223677,0.0021900912,-0.078034155,0.05392947,0.02485306,0.08885496,-0.05020749,0.019164452
-0.24116671,0.25636145,0.18046424,0.022379842,-0.00033295818,0.0004669561,0.081602715,0.03970336,-0.08733704,-0.2054497
0.034394067,0.029305179,0.07349879,0.029538825,-0.03973761,0.014190523,0.09778227,0.021018725,-0.014906677,0.07223092
-0.048244953,0.045632146,0.00031048586,-0.12808898,-0.011082787,-0.14275052,-0.10659573,0.09512067,-0.3150957,-0.12167577
0.07401953,0.029648555,-0.23126376,-0.1496936,0.08307445,-0.23078206,0.23892811,0.032783624,-0.19895802,-0.04541788
-0.034862164,-0.10146028,0.025616115,0.022398846,0.038349457,-0.009387644,0.066709824,-0.044389218,0.07796396,-0.07765722
0.05873519,0.02146424,0.033922393,0.04022029,-0.015975457,0.049837265,0.09954385,0.05162579,-0.024253055,0.07189552
-0.07405913,-0.04737205,-0.058382344,-0.04290081,0.04742901,-0.0791559,0.065811746,-0.047660667,0.031893972,0.04236317
-0.06237792,-0.18857439,0.04171778,0.15342745,-0.123034865,0.10972337,-0.04849205,0.017261086,0.066804044,0.11704047
-0.047892712,-0.042630915,-0.049825937,0.047790635,-0.05229204,-0.09455154,-0.053680558,0.037863683,0.05976333,0.033477943
0.015156274,0.032643497,0.045604363,0.04178501,-0.03396022,0.048722062,0.079720415,0.017253917,-0.018842796,0.09088728
-0.082605265,0.04733435,0.06717489,0.1573979,-0.13401286,-0.06249635,-0.10153066,0.0694473,-0.18440217,-0.015845448
0.087886885,0.032992758,0.055811644,-0.03717734,-0.084424235,-0.05752792,-0.076685965,0.051750824,-0.028864615,-0.16339368
-0.02391555,0.034320645,0.054877024,0.026216732,0.0038319326,-0.07976666,-0.055362947,-0.05711974,-0.05734004,-0.072418
0.1135178,-0.06480579,0.046424363,-0.041357268,-0.23696522,-0.019134523,-0.005008894,-0.045380093,0.07828923,-0.096040174
-0.076515585,-0.08148754,-0.037958257,0.045563865,0.033341903,0.07975082,-0.080637835,-0.037199665,0.02548305,0.040486477
-0.04550986,-0.024992697,-0.041800093,0.028722778,0.05670549,-0.046246644,-0.082051255,0.054911032,0.06990225,0.07043595
-0.09572653,-0.024391295,-0.03834568,0.09132233,-0.05998399,-0.054005675,-0.037338614,0.040893305,0.03147558,0.08317349
0.044411566,0.10293023,0.059308138,0.011767302,-0.013596391,0.057234976,0.078405485,-0.0022644952,-0.033625375,0.023507208
0.05910733,0.034417007,0.0096998485,0.06494762,-0.05027991,0.00940728,0.03312569,0.04701178,-0.05020299,0.044746507
0.02687459,0.036256984,-0.028171204,-0.05564754,-0.03712909,-0.01934072,-0.10971636,0.030562203,0.011579246,-0.050738942
0.042178437,0.08313951,0.0069314204,0.061849404,0.01621324,0.08634378,0.043346282,0.037241545,-0.016422953,0.074109696
0.012594398,0.02837569,0.030435601,0.017074056,0.027998412,0.04771328,0.022211308,0.018103585,-0.071682565,0.08611273
-0.003971609,0.030781534,-0.088712044,-0.026264034,-0.007944408,0.10593433,0.00562761,-0.043962315,-0.0033367523,0.11170898
-0.095245,-0.04874894,0.0441269,-0.104899816,0.026401283,0.074309774,0.068538785,0.027471056,-0.07964493,-0.05231232
0.050649244,-0.042383175,0.045399882,0.08295748,0.018073784,-0.016592871,-0.04683764,0.051705025,-0.0020508228,-0.119887546
-0.008924399,0.06346665,0.060489383,0.022007668,-0.05933591,0.021753294,0.07469227,0.047681853,-0.03546652,0.07137128
0.017809343,0.02995963,0.09262164,-0.0065988046,-0.08836532,0.061991796,-0.06908954,0.022373773,0.06650994,-0.031401917
0.008913526,0.029625272,-0.03856127,0.0032714335,0.026149707,0.010517076,0.013970015,0.002768246,0.0077111176,0.03506789
-6.086761e-05,-0.019794822,-0.0031575912,0.06791274,0.016726775,0.052417673,-0.049103137,-0.048067614,-0.013544331,-0.02677409
-0.06546065,-0.004032016,0.024317306,-0.110227056,0.06409343,-0.11355925,-0.06621119,0.033415243,0.022355145,0.036311693
0.045276053,0.016150352,0.081659034,0.07957172,-0.033409003,0.008396129,0.032305595,0.047003947,-0.029434644,0.0078962175
0.031870283,-0.06960224,-0.017192032,-0.087428465,0.038235895,-0.052775517,0.04063034,0.046107303,-0.033288106,0.032102317
-0.0066765547,-0.0026767333,0.025384936,0.024877148,0.033572525,-0.008691012,-0.053910337,0.07088177,-0.025899403,-0.00088434306
0.0734956,-0.07204352,-0.094868064,0.043278344,9.349551e-05,0.05588944,0.07228726,0.010862668,-0.0937149,-0.05610174
-0.08713628,-0.063566715,0.029578865,0.04604638,0.049579788,-0.047249712,0.061692916,0.030993588,-0.059504855,-0.04415882
0.0561248,-0.004554926,0.03576975,-0.021288777,-0.006428622,-0.05418799,0.04768821,-0.004716167,-0.024885818,-0.03756987
0.16871285,-0.13172437,-0.046132855,-0.12863213,-0.01764649,-0.09513645,0.025136672,0.13239756,-0.027512236,-0.09547476
0.03719183,0.01868973,0.05423519,0.058655877,-0.0044759223,0.014142765,0.030744458,-0.008955863,-0.007294438,0.08157268
0.0013383062,-0.05708009,-0.04293807,0.0863067,-0.079132535,-0.0037404296,0.03707618,0.040383946,-0.07655551,-0.036222186
0.05646459,0.029271783,0.042606764,0.0673556,0.026791466,0.07634359,-0.028104538,-0.015877215,-0.009953719,0.04086579
-0.030041577,0.051882528,-0.01984035,0.024610324,-0.039763436,0.020289756,-0.03369316,0.049542107,-0.02467152,0.022680456
0.035402186,0.03334568,0.018446688,0.04868159,0.007441042,0.008686747,0.058871936,0.06878683,-0.05538296,0.07175492
-0.05819636,0.03496316,0.067428656,-0.070907764,0.026134139,-0.08106988,0.03880896,-0.043817192,0.0543311,-0.03789366
0.05385272,-0.07237256,-0.04910455,0.037151042,0.033293303,0.028045883,-0.05999921,-0.010748431,0.044683393,-0.018008295
0.041663863,-0.035167232,-0.039272323,-0.08110939,-0.06654908,0.07367128,-0.072827555,0.062085778,-0.074017875,-0.086725555
0.05138147,-0.058398526,-0.09422723,0.08935116,-0.07457744,0.048756424,-0.03535393,-0.069951706,-0.0098542385,0.049803566
0.048217144,-0.027160715,0.05549876,0.08142176,-0.03877817,0.06730746,0.092126064,-0.026003793,0.047830336,-0.049589228
0.005188663,-0.047033813,-0.04259156,-0.034126144,0.0022540542,-0.03952195,-0.050794628,0.029125135,-0.02251687,0.015345274
-0.0043550385,-0.031316858,-0.00038716645,0.00968286,0.03141152,0.0057023624,0.025779108,-0.022763075,0.03165682,0.012379013
-0.0049417224,0.07128801,0.043421745,0.05441207,-0.03359138,0.013522778,0.04923025,0.07240458,-0.028845074,0.04155363
-0.19619088,-0.030920263,-0.020181084,0.0546615,0.26361635,-0.38506928,-0.095948994,0.0653821,-0.14501551,-0.16286753
0.07099358,0.03940212,0.0200131,0.06329025,0.017640818,0.016584087,-0.0232973,0.010760625,-0.018441884,-0.0115354825
-0.09927344,-0.03974367,0.06851946,0.0248153,0.0044680964,-0.037254274,0.0134737855,0.076902896,0.07375007,0.064419374
0.03430227,0.060799923,0.049688518,0.07930098,-0.027674217,0.019452877,0.06183287,0.05979112,-0.048689157,0.0827836
-0.059038576,-0.03653079,0.069714054,-0.06195755,0.03845873,-0.06589609,0.06367451,-0.02463646,0.03433183,-0.08890277
0.0008327293,-0.06090763,0.087398805,-0.06661718,0.021752378,-0.062011547,-0.03397931,0.15274602,0.0012363668,0.014660571
-0.026368625,0.094482616,0.03106948,-0.029519396,-0.091930605,-0.05519759,-0.07529348,0.093837075,0.03941956,-0.059076216
-0.05703732,-0.028497292,0.06285786,-0.078915596,0.04211105,-0.036904182,-0.08832604,0.08069694,0.06487703,-0.08523
0.055602476,0.0631939,0.0720288,0.016507663,0.08276495,0.048011843,0.08783242,-0.042059824,-0.008643151,0.06465079
0.093378626,-0.0047730184,-0.03263435,0.09959613,-0.11222533,0.10568173,0.13448979,0.015957458,-0.044208188,0.02819874
-0.06178691,-0.05024982,-0.08596203,-0.08403464,0.04227646,-0.029654048,-0.087068126,0.044050016,0.06796455,0.043414563
-0.06881413,0.07234599,-0.0073727686,-0.075916916,0.19788256,-0.07046951,-0.047570687,0.12408568,-0.19084562,-0.08390894
-0.047403865,-0.05110078,0.056921795,0.031945977,-0.07422708,-0.09266766,-0.09344998,-0.078981854,-0.06696499,-0.028259052
-0.097856544,-0.017943615,-0.099703714,0.016329497,0.04981503,0.032679938,-0.054097984,-0.043801676,0.11452323,0.03912341
0.04542731,-0.05766844,-0.00096392335,0.03715286,0.034027055,0.035396215,0.019168608,0.041104414,0.023678152,0.011488122
0.057925582,0.02566931,0.029965173,0.022401901,0.012763558,0.03500888,0.050167706,0.024884783,-0.033834245,0.07096194
-0.047890857,0.05028742,0.04850417,0.017750485,-0.0009146027,-0.040759616,-0.04565625,0.0063243755,0.0024181646,-0.019692356
0.0019938236,0.052967645,-0.0033055665,0.056094952,0.04541946,-0.12158245,-0.044961475,0.035761796,0.024053138,-0.02517394
0.057976156,-0.06292472,-0.03529271,-0.04202584,-0.18699412,0.07945252,-0.15349053,0.1205189,-0.016437126,0.0068427823
0.020082897,0.10159697,0.042180985,0.004586397,0.011876036,-0.098329574,0.049375344,-0.119233616,-0.035678726,-0.0030984026
0.068032496,0.0072466885,0.083053544,0.06533962,-0.04422892,0.048858866,0.05897345,0.060115054,-0.03439455,0.057305437
0.03633801,-0.061345164,-0.03749482,0.03516387,-0.0032321007,0.015260405,0.041621406,-0.026795853,0.08519481,-0.038035735
0.06282639,0.08317223,0.023377798,0.06520539,-0.0065618414,0.05052797,0.054071687,-0.010304709,-0.02895574,0.058106642
0.020766018,-0.057900067,-0.023623956,0.030837456,0.018442342,-0.008048625,0.053125054,-0.062454965,0.017807838,-0.027919794
0.025352854,-0.004280604,0.03751191,0.040245485,-0.014091859,0.014576607,0.014514275,0.040980805,-0.039395783,0.054664005
0.017948123,-0.06752786,-0.1796816,0.028644638,0.15670894,-0.007274494,-0.14865316,0.060768723,-0.14542282,0.12555242
0.07170652,-0.02779283,-0.073723644,-0.027528062,0.066918366,0.0444585,0.03387301,0.06947269,-0.08803297,0.038620368
0.053607445,0.048019595,0.040700544,0.05866606,-0.024852134,0.06289461,0.03674039,0.08156389,-0.022211608,0.09455455
0.014550805,-0.023098176,-0.038905706,0.01610669,-0.013042361,0.05477945,0.005393342,0.027559986,0.007820211,0.003925873
-0.007805433,0.021532035,0.055691876,-0.0034244154,-0.029412739,-0.019191725,0.009883945,0.0073264614,0.027952423,0.014641582
0.042650577,0.02550224,0.048372407,0.045084015,-0.030493544,0.05230293,0.09355115,0.0014812393,-0.03236351,0.05011571
-0.033509668,0.025781954,0.06225669,-0.04392389,-0.0020508827,-0.006143297,-0.045510985,0.09689314,-0.013652472,0.10827102
0.075291686,0.03626629,0.03867081,0.07211954,0.008599804,0.046809692,0.003708811,0.03187008,-0.03975543,0.07381859
0.06061181,-0.086549714,-0.009523422,-0.12265406,0.04907716,-0.13964987,0.0655389,0.23904817,-0.039405454,-0.08801973
0.06983072,0.043690056,0.081486255,0.05913613,-0.09012867,0.025510406,0.06601035,0.039519764,-0.008161898,0.073402226
-0.049921244,0.03705184,-0.020540256,0.06440527,0.037647348,-0.073513664,-0.031791274,-0.0936051,-0.0817591,0.06509817
0.022846948,-0.018854449,-0.011088689,-0.013330199,-0.014296527,-0.042659882,-0.02225808,0.039921682,-0.0058343336,0.025768638
0.054937586,-0.10747084,0.0015569334,0.036796294,0.04079134,0.0052927253,0.008658612,0.0073553855,0.06405406,0.01691365
-0.24606012,-0.046014477,0.0019331516,-0.10003448,0.054982204,-0.12465399,-0.03157345,0.0017506332,0.015979284,0.15630743
-0.035644274,0.024741653,0.07830734,0.018045349,-0.010718454,0.05136528,0.02346048,-0.043232813,0.07722351,0.0102201095
0.064362064,0.0017018905,0.075826146,0.09221445,0.023625107,0.04386546,0.06032858,0.04055412,-0.01968308,0.09117758
-0.08511915,0.05326464,0.05085932,-0.031837218,0.06417755,-0.028721934,0.08476826,-0.029979788,0.061567616,-0.047023643
0.028215146,0.0727312,0.1008569,0.06767604,-0.04784106,0.019762443,0.018155217,0.027279597,-0.024636434,0.057061207
0.054896194,0.054147,0.05363402,0.010759437,-0.008135325,0.010248734,0.063231096,0.018038198,-0.038957804,0.043838326
0.03945725,-0.00037658852,0.024111923,0.086088814,-0.009561554,-0.014438103,-0.026305,-0.008718458,-0.03623016,0.11248613
-0.20673744,0.039570305,-0.090198934,-0.11477643,0.11388987,-0.09237499,0.11156764,-0.042010386,0.09018847,0.09328859
-0.10035284,-0.09582693,-0.044353914,0.033599086,0.1438631,-0.17901051,-0.1611967,0.11061037,-0.08168717,-0.11973775
-0.023346977,-0.05358383,-0.088794984,0.048121747,0.02302276,-0.052927934,-0.079544306,0.06021905,0.03612197,-0.08011141
-0.026828602,-0.124168925,-0.07301563,0.1431936,0.069154136,-0.032845322,0.002755086,0.036752276,0.0025558015,0.036168616
-0.037634652,-0.025740447,0.05447214,0.04441943,-0.08237997,-0.039110266,-0.043686047,-0.05969277,0.04557427,-0.08602584
-0.028271975,-0.061581872,0.0623528,0.088039,0.051686563,-0.00061460346,-0.033828337,0.06268971,-0.0136102,-0.09409061
0.068105,0.08671091,0.062631726,0.05452661,-0.060811978,0.023768796,0.037197452,0.021725854,-0.046784926,0.030648211
0.040867224,0.008039202,0.018019961,0.027346142,-0.071331665,0.09667481,0.06521387,0.045371097,-0.0058400505,0.07076457
0.060665783,-0.049401674,0.019369489,-0.013713515,0.0454005,-0.047176722,0.05202787,-0.019922428,-0.010883927,0.02665456
0.045576394,0.0070079435,0.0038133932,0.08610591,0.039915677,0.028824424,-0.0051240716,-0.0018846496,-0.00058731803,0.00607726
0.066642806,-0.05888868,0.01348612,-0.1310111,0.037580162,0.055188145,0.0047793114,0.24475686,-0.14201044,-0.05318036
-0.18578143,-0.20074704,0.11104089,-0.21019608,0.056459945,-0.20965834,-0.031699665,0.051406182,-0.13403592,0.07176187
-0.103514336,0.05123573,0.17379665,0.024237413,-0.097381294,-0.07184406,-0.016228829,0.15051301,0.0595346,-0.13084942
0.057210363,-0.019409606,0.0545478,0.03714342,-0.01887602,0.024587937,0.060385313,0.040673617,-0.033056807,0.027524136
0.032144994,-0.011644819,-0.12617068,-0.052867986,-0.06048368,0.18835571,-0.072480194,0.14182016,-0.06374011,-0.14138661
0.097156264,0.13925494,0.21311113,0.047485568,-0.28876343,-0.013551984,-0.34003046,0.01251842,-0.3527253,-0.45566443
-0.007012314,-0.02364169,0.03837833,0.04677953,-0.036886223,0.036886718,-0.07192031,-0.02778742,0.03466634,-0.014189189
-0.09741999,-0.4156774,-0.18598297,-0.017476734,0.09729741,0.13736138,-0.06280551,-0.09745497,0.10510661,0.10957647
0.0063525434,0.029190477,-0.0005765389,0.008964981,0.032918114,0.024147838,0.065618984,-0.02087704,-0.047589917,0.019022983
0.03743051,0.03655803,0.042751152,0.07517164,-0.027967818,0.0807894,0.03568136,-0.026077138,-0.026474295,0.017507587
-0.078033864,-0.08055552,0.10971162,0.04007011,0.025495129,0.030256215,-0.0648477,-0.054556295,0.05175696,-0.002704683
0.024355516,-0.035802342,-0.038755078,-0.051741745,0.06533094,-0.08393962,0.07049097,-0.06957671,-0.024591647,-0.0605002
-0.07565656,-0.03722166,-0.076654546,0.03736043,-0.06904408,0.08372583,0.07385918,-0.08577614,0.028441314,-0.03194962
0.07126531,0.1662887,0.07661561,0.014665904,0.073135585,-0.21640666,-0.2350783,-0.04517298,-0.055033933,-0.01452774
0.025702067,-0.049411792,-0.06994345,-0.018447611,0.040975485,0.096149504,0.035855517,-0.011599252,-0.11744207,-0.088955805
0.04710111,-0.05013223,-0.02478059,0.04316775,0.08643371,0.07423645,-0.041705377,0.039751194,0.0065959445,0.043949675
0.036812954,-0.136141,-0.058023978,-0.038868345,0.04315302,0.05228368,0.019328311,0.00554504,0.003966902,0.03705793
-0.02229291,-0.06601012,-0.02704817,0.061820593,0.0459658,0.04860611,-0.049929984,0.027296707,0.09748852,-0.0028918604
0.068329,0.05119719,0.013538859,0.06713514,-0.01857189,0.059582267,-0.0016687952,-0.00823138,-0.018480755,0.05448755
0.016718637,0.02666319,-0.0119812405,0.0047320556,-0.06325203,-0.0105384765,-0.089655675,0.055039756,-0.016715532,-0.026224097
0.045597505,-0.020919196,-0.01079697,-0.09582333,0.0010427493,0.047862917,0.09378979,-0.05498185,-0.0023126844,0.07289706
-0.030758029,0.0455989,0.065685764,0.09716835,-0.06142525,0.03626842,0.045654282,-0.08690062,0.0025466925,0.032916438
-0.02114274,-0.08301078,-0.07454774,-0.028466163,0.024373189,-0.038121972,-0.05879621,0.04110971,0.024820955,0.04236549
0.06577395,-0.09357769,-0.09997746,-0.1487248,0.045729075,-0.14362904,0.03468819,0.2426398,0.017393604,0.070609234
0.051678017,0.028758008,0.0057473076,0.04993272,0.018437129,0.08926876,0.055292737,-0.022346547,-0.035580236,0.021542778
0.011823252,0.110036,0.06988419,0.04114358,-0.027202623,0.027857888,0.05456514,0.06627039,-0.038775638,0.059891853
0.019737886,0.024041096,0.009134792,0.097983435,0.06904189,0.055618636,0.021610767,0.010778762,-0.031623192,0.044075515
0.017313613,-0.02823,0.24475583,-0.047990482,-0.057176873,-0.07894033,0.19975337,0.013047594,-0.08208307,0.018061183
0.028184155,-0.17092592,-0.043210544,0.041567322,-0.0137456935,0.036646552,-0.096883036,0.06588761,0.0057103424,-0.036165796
-0.15308064,-0.10889985,0.08083205,-0.0945738,-0.14254151,0.1340659,-0.28017452,0.057159893,-0.055407353,0.03285019
-0.019446338,-0.009956595,-0.03155696,0.030712998,-0.110595375,-0.027360285,-0.25193757,-0.06943776,0.06562928,0.07331659
0.04323231,0.029132346,0.051446423,0.07883214,-0.077544875,0.075003006,0.029159818,0.032097876,-0.04237908,0.025110358
-0.02621495,-0.09084889,-0.056182582,0.025852647,-0.05650694,0.024652373,0.046160024,-0.09180308,0.07403122,-0.043801423
-0.06013769,0.050014555,0.0304185,0.03369705,-0.08752598,-0.06515518,-0.027573653,0.0563101,0.037465118,-0.047479995
0.010165141,-0.0056657004,-0.05765911,-0.014213401,0.030828133,0.073918566,-0.043711267,0.049702294,0.010493517,0.037260212
-0.0056081014,0.08170109,0.050075643,0.059784185,-0.023738546,0.06045084,0.01190478,0.072289936,-0.013522073,0.054479312
0.033557825,-0.08248494,-0.088754624,-0.09712897,-0.05473962,0.060072683,-0.048662715,-0.032566786,0.068028584,-0.041949935
-0.031623892,-0.018783137,0.017275123,0.008999632,0.074716814,-0.010832085,0.03397995,-0.03895318,0.0523447,-0.056416873
0.06919553,-0.11975521,-0.02140066,-0.0030618026,0.076318435,-0.008210911,-0.025752401,-0.0056864973,0.06382723,-0.048101466
-0.07286488,-0.06854273,-0.04114284,0.057161704,-0.09114332,0.026946621,0.06378027,0.062515184,-0.046984166,-0.02636183
0.10865174,0.040320057,-0.13082914,-0.061268046,-0.12902747,0.28602293,0.16104051,0.12390914,0.01455961,-0.11220651
-0.10561455,-0.17071016,0.03485329,-0.07404266,-0.013892811,0.014174596,0.08994922,0.027424056,-0.028681062,-0.036352903
0.074466564,0.052301656,0.058406547,0.068261534,-0.007814601,0.031421825,0.02275731,0.012525,-0.03544684,0.055970505
-0.023295814,-0.019445077,-0.033769537,0.057476997,-0.0031999424,-0.00606991,0.015305637,0.0354016,-0.008873928,-0.013169509
0.016653659,-0.063312955,0.04121812,0.08867409,0.014394447,0.050651412,0.022682186,0.03915886,-0.005142359,0.034427088
0.06613749,-0.25177902,-0.20307066,-0.062090646,0.15177561,-0.19836311,0.18073122,-0.06521877,-0.1369466,0.0820445
0.06688867,-0.04004183,-0.028928,-0.094932586,0.03670453,-0.09368197,0.033740256,0.05849408,-0.05937319,-0.08912109
0.08040812,0.020055579,0.065112196,0.053183742,-0.062401496,0.04092902,0.06547142,0.013478148,-0.011590524,0.039427217
-0.06551412,0.06414483,-0.018118149,-0.034467373,0.024794355,-0.024544409,-0.066294,0.07581956,0.0717675,-0.05093404
0.049980413,-0.08612297,0.059310388,-0.091578335,-0.08809778,-0.040935468,-0.08609608,-0.040453926,0.04971195,-0.0760853
0.06449777,0.041784164,0.025159877,0.017052684,-0.08991647,0.02273468,0.10139677,0.025490345,-0.013383059,0.09052085
0.012585217,0.061862644,0.093271695,0.058218528,-0.050532326,0.047109652,0.010888322,0.03217146,-0.0352213,0.018822087
-0.023062415,0.026341807,0.022022707,-0.008329579,-0.033233833,-0.039362542,-0.011586439,0.043162163,0.018642943,0.05360137
0.11877003,-0.02505024,0.027714266,-0.023382274,-0.058741502,0.02356665,-0.09266373,0.016959712,-0.027252471,0.053956155
0.11888975,0.01683752,-0.044921014,-0.09002713,0.031778462,-0.037957128,-0.036623284,0.056150258,-0.08616035,0.06798151
0.10102278,-0.19123557,0.027838273,0.009933431,-0.0075527523,-0.020834273,0.09498434,-0.15204634,0.017677424,-0.28294447
0.035437122,0.012400314,0.031603087,0.033439036,0.043384105,0.046030723,0.018097516,0.0067394893,-0.0034172067,0.06205671
0.0016506676,0.07259297,-0.06839447,-0.054790672,0.0589183,-0.04532149,-0.12830156,-0.039529942,0.0091046505,0.13172092
0.13980438,0.010093041,-0.0814942,0.10198651,-0.08931334,0.054110985,-0.09251558,0.046723977,-0.020235002,0.05528253
0.07120547,0.06695408,0.03045373,0.041231647,-0.04054693,0.08314706,0.03587482,0.028101897,-0.009057474,0.031803202
0.019657373,0.04402698,0.03460778,0.05645178,-0.01977107,0.039538402,0.103665106,0.020324336,-0.029476395,0.028751729
0.07175435,-0.05483332,0.07362911,0.023739625,0.05638551,-0.022495283,0.048095677,-0.02108726,0.056846887,-0.039318975
0.038647883,0.0713313,0.035780143,0.09096171,-0.06389388,0.03117415,-0.027658874,-0.044560988,0.035138924,-0.0395366
0.015101662,0.020286096,0.024337519,-0.02530052,0.011410829,0.049961552,0.057489544,0.034008685,-0.052484095,0.04635698
0.033405602,-0.06561069,-0.02772478,-0.07614064,-0.10217474,-0.089511335,-0.0074534817,0.069458954,0.025497133,0.016795335
-0.027246913,-0.002194804,0.14576721,0.006030731,-0.0030030317,-0.040609296,0.05794547,0.04648985,0.01993729,-0.059417356
-0.060297582,0.047871314,0.059831202,0.035640735,-0.10622496,0.097487375,-0.046518657,0.06740667,0.015866306,-0.061418135
0.01947726,0.07916636,0.06877889,0.041193932,-0.05909909,0.012895572,0.04923682,0.016205981,-0.0076806634,0.019946529
-0.1276905,0.032559212,-0.0344567,-0.095925115,0.062197097,-0.030001186,0.073166594,0.00228343,0.15348403,-0.15667066
-0.080595806,-0.03211452,0.077483036,-0.042386554,-0.029654214,-0.086435646,0.06474914,0.064680375,-0.026573876,0.09633997
-0.074830994,-0.097825535,0.016445225,-0.019204073,0.035341162,-0.060139343,0.06374117,0.07421726,-0.10871177,0.05085577
0.010774649,0.12578338,0.059955895,0.13035859,-0.029996507,0.033295944,-0.050100673,-0.017856998,-0.03391801,-0.027455265
0.09046107,-0.0042153923,-0.0040129675,0.10997669,-0.09000858,0.047236823,0.0702688,-0.0706523,-0.0152585795,0.004793563
-0.049284276,0.09115334,0.0009346317,0.04802021,-0.05209583,-0.08615226,-0.04925832,-0.02844607,0.05971351,-0.053694718
-0.04217825,-0.028555954,-0.04681307,0.056649867,0.03307243,-0.045329247,-0.09033719,-0.08482695,0.041251056,0.09384866
-0.055155303,-0.05243157,-0.07649122,0.06640141,-0.063364856,0.03982136,-0.061844856,0.063479595,-0.06290689,0.0384242
-0.01988982,0.26592726,0.014648531,0.09300938,-0.054223035,0.09241575,-0.11768239,0.08237084,-0.05621287,0.020003408
0.036403496,0.07264566,0.017221764,0.048551034,-0.007840881,0.07815212,0.023907743,0.015166965,-0.029908746,0.03515361
0.071246,-0.017399818,0.041105736,0.05391924,-0.07621836,-0.07069821,0.08249096,-0.04451863,-0.054523125,-0.060296725
-0.06715074,-0.03347084,-0.040482692,-0.090692386,0.03831288,-0.07703369,-0.062040996,0.041313596,0.04753704,0.06812101
0.056122094,0.032592803,0.060499806,0.006857422,-0.04417377,0.03375635,0.022407629,0.032143176,-0.0120981615,0.08435388
0.020129856,0.017559912,0.0002592908,0.06779851,0.025122514,-0.0019864666,-0.008117949,-0.0017557496,0.025284782,-0.027445082
-0.12150399,0.008250129,-0.09469942,-0.0008754093,0.034588546,-0.046869535,-0.11116769,0.06615733,0.059139803,0.021395633
-0.052704062,0.026054444,-0.018172288,-0.03180354,0.032117873,0.025875937,0.0040728673,0.047184914,-0.0010366377,0.05745825
0.023943087,0.04145397,-0.017570607,-0.06333608,-0.117572956,-0.035835467,-0.005720994,0.025352983,-0.015658472,-0.032532915
-0.114137605,0.17434955,-0.15688817,-0.18233187,0.3115968,-0.23831837,0.08687213,0.013657486,-0.069383055,-0.13309428
-0.064966924,0.03857904,0.017807076,-0.036074687,-0.00935019,0.040984083,-0.018212093,-0.016971234,0.09170137,-0.033525918
0.030006945,-0.04579504,0.046447884,0.04870799,-0.060540393,0.08900261,-0.049946472,0.08346744,0.051788792,-0.06523789
-0.046337403,0.089596145,0.10241722,-0.011527397,-0.061982043,-0.08499019,-0.024584679,-0.023690151,0.026637554,-0.0024217074
-0.05365757,0.13728829,-0.15748848,-0.23063181,0.21892552,0.059181686,-0.026101718,0.18953091,-0.09856847,0.13392536
0.00939627,0.03934134,0.014035298,0.04150536,0.04896412,-0.067724824,-0.1054004,0.043128677,0.053174485,-0.011054764
-0.09003078,-0.0686853,-0.023472046,0.048938025,0.084819406,0.069034174,0.026808444,-0.030772302,0.045321606,-0.09257236
0.07224205,0.019642077,0.06179675,0.03357492,-0.059691053,0.040703576,0.012011889,0.022550289,-0.017487677,0.035900794
0.059747104,0.010501901,0.015741743,0.086897545,-0.074356064,0.054915067,0.057503514,0.019632671,-0.033309266,0.049830638
-0.05804184,-0.04508739,-0.056487773,-0.02571533,0.06221249,-0.056515336,0.025022617,-0.05849156,0.033046693,0.0722845
0.1308824,-0.03379545,-0.13209905,-0.068526715,0.07277153,-0.23442574,-0.091172844,0.046133872,0.017373025,0.036851395
0.008475498,0.009157113,0.050333336,0.06399908,-0.051702395,0.062433265,0.010640264,0.028930735,-0.030418277,0.021293338
-0.0763694,-0.09521431,0.0057457956,0.07077815,-0.0009353943,0.054638207,-0.041031934,-0.05115028,0.023363594,0.029753726
0.017402735,-0.009268811,-0.071235925,-0.055362247,-0.18043393,0.067525,0.2049234,0.07879596,-0.09664523,-0.027172027
-0.025043845,0.030535163,0.013862973,-0.044939782,0.069413744,-0.036689382,0.105471954,0.037246708,0.004537746,0.06083311
0.010415088,0.016520321,-0.015827674,0.014822754,0.03925039,-0.009773322,0.03618567,0.0059761675,-0.023487076,0.022253647
0.047247868,0.08497336,-0.25236964,-0.13787667,-0.013403494,-0.0123938685,0.014588685,-0.030222027,0.16741678,0.12697542
0.009743847,0.04713468,-0.07078594,-0.035694208,-0.065228514,0.08975068,0.029926559,0.0036430731,0.016560813,0.028627591
-0.03437583,0.12879993,-0.049056396,0.15243444,-0.068579026,0.0336704,0.0062360577,0.12399184,-0.041378234,-0.05069116
0.03050405,-0.066054,-0.040631305,-0.08589488,-0.05893814,-0.042976554,-0.029029638,-0.06483824,0.0640405,-0.090959325
0.032209847,-0.03467043,-0.0742746,-0.04456546,0.03493398,0.050551992,-0.08962474,0.043181516,-0.032942932,0.030240748
-0.036191463,-0.0893273,0.03689419,0.08314779,-0.048616998,0.047033668,0.09767829,-0.06880487,-0.038914025,-0.07053544
-0.0559665,-0.11455239,-0.019169608,0.09366633,0.14509036,0.11944563,-0.06995637,-0.026237968,-0.07823537,0.13589273
0.029447451,0.035541,0.07874398,0.004093443,-0.056435592,0.014754835,-0.0017359062,0.096868865,-0.04202674,0.017015014
0.032992706,0.045374498,0.05792089,0.033239756,-0.0038926539,0.026958833,0.0380543,0.06961973,-0.058593154,0.03774887
0.012658832,0.07211469,0.037884,0.06938018,-0.019204542,0.048741214,0.02101902,0.06642867,-0.008963794,0.08174777
-0.040440723,-0.040120546,0.008398092,0.0012358627,0.04525025,-0.03156983,0.02906451,0.0018354802,0.0075672134,0.02606418
0.03246209,0.0089537315,0.03899615,0.0613166,-0.011364557,0.07173994,-0.0014366655,0.039229546,-0.026732653,0.075218365
-0.056038655,-0.05889849,0.0067796507,0.082995005,0.00027333212,0.024776658,-0.06717,0.061675787,-0.025332576,0.041590948
-0.050742768,-0.010590365,0.038843226,0.025547892,0.04203992,-0.00019458735,-0.014466764,0.017916607,0.015033437,0.0016516803
-0.063201204,0.06612202,0.11100292,0.10165495,-0.063044116,-0.09049173,-0.06322694,0.001364322,0.033923525,-0.01846874
0.034352,0.06186814,0.034740053,0.054068495,-0.011875169,0.029127348,0.012404038,-0.00079964014,-0.02815711,0.03747881
0.05737103,0.056766108,0.060254056,0.024615685,0.01075833,0.029365402,0.012481622,0.010435054,-0.034894872,0.09435299
0.0067952527,-0.030067788,-0.02322102,-0.0002951612,-0.021626621,0.036325328,-0.0005008037,-0.00013218044,0.01748605,-0.017927118
0.07627259,-0.037477728,0.02119202,0.0147693725,-0.048257474,0.02068846,0.02529251,-0.012859781,0.005512858,-0.01052366
0.018261312,-0.05732143,0.023665378,-0.02303113,0.055915613,0.0030866512,0.030973213,0.038955253,0.011638647,-0.022797039
0.07253463,0.04045844,-0.13874349,0.07578843,0.14820719,-0.10412208,0.017326878,-0.08343152,0.016883956,0.1245319
0.049883205,-0.018872911,-0.0044420282,0.04037332,0.0057948697,0.041461963,-0.047955275,-0.011246567,-0.01234516,-0.0122643355
-0.01054447,-0.05366761,0.032190956,0.004420716,-0.00982223,-0.003246485,-0.057227172,0.043905843,0.009282932,0.006217962
0.06410368,-0.071823135,-0.029502006,0.044744845,-0.04280614,0.04529773,-0.06945841,-0.036618862,0.03198968,-0.07283105
-0.15151042,0.059627417,-0.11968125,0.05741793,-0.0038606604,-0.045073405,-0.026512247,0.07749901,-0.036191586,-0.010525165
0.03281292,-0.047616005,-0.013404158,0.03664444,0.014727231,0.03724226,-0.02676965,-0.015807733,0.016103791,0.008566731
0.036973983,0.089983135,0.070861585,0.09000292,-0.07473325,-0.016567834,0.06610482,-0.075912006,-0.02679531,-0.08065861
0.0105208745,0.20408933,-0.0042178524,0.01741202,0.10137515,0.034531996,0.06518052,-0.10241128,-0.05994068,0.0010402965
-0.00023470257,-0.033987463,0.040739365,-0.015721822,0.0114361625,-0.0071016178,0.02529538,-0.009094634,-0.0011633697,-0.032215364
-0.24763298,0.1654874,-0.15595199,-0.17129773,0.3096498,-0.055063028,0.021741481,0.045148753,-0.18913193,-0.15070541
0.03073468,-0.04022804,0.026826551,-0.0075332182,0.043637887,-0.052549526,0.0042396626,-0.020557376,0.04563374,-0.07789291
-0.013256098,-0.023234602,0.052054554,0.039583463,-0.033623774,-0.078998856,0.06184822,0.063877575,-0.015386884,0.058155335
-0.033654585,0.031029882,-0.04745908,0.026964828,-0.030904187,0.036078613,-0.07144368,-0.034687046,-0.052500308,-0.046548594
-0.07970006,-0.07928599,0.08118343,-0.09016287,0.03318145,-0.032473564,0.06887918,-0.047158204,0.08042769,0.055878162
-0.030742353,-0.044084616,0.0011567138,0.018789371,0.042953897,-0.01040015,0.03175727,0.01618156,0.015317674,0.048702415
-0.009571633,-0.0660082,-0.005669821,0.0047885207,0.028915433,-0.017726108,0.017900832,-0.012892889,-0.0023177667,-0.023000656
-0.0020213318,-0.073695324,-0.031596947,-0.08401504,0.053647805,-0.05916696,0.024064632,-0.04596829,-0.023769232,0.05631085
0.016580952,-0.0009467374,0.04487321,0.06885888,-0.009750984,0.03969586,0.021441892,0.0015760087,0.035198268,-0.028884811
0.051274292,0.055094376,-0.05062891,-0.051585976,-0.04121482,-0.11064578,0.1734977,-0.17060536,0.09890254,-0.07608345
0.0316024,0.07278281,0.034064148,0.061870486,-0.06289706,0.02383113,0.02830869,0.011312781,-0.030985141,0.0244829
-0.0749592,-0.006963775,0.09394264,0.16569479,-0.026468147,-0.18408725,-0.20879602,-0.013609411,-0.10978602,0.061909907
-0.06909191,-0.03937171,0.043785464,0.05685794,-0.06966757,-0.030206218,0.06923285,-0.04098282,-0.09262586,-0.024667123
-0.12146333,-0.051834892,0.058511328,0.05352288,-0.028581133,-0.1929584,0.07127339,0.083785154,0.0008596085,0.04582562
-0.019507458,0.013878253,-0.029999845,-0.035058428,0.009803019,0.04747685,-0.02908908,0.056138486,0.00683187,-0.02585423
-0.04416798,0.089284874,0.0529147,-0.066505365,-0.07037202,-0.08114787,0.03908448,-0.026160423,0.04264503,-0.05530046
0.0015423055,-0.03987995,0.05960062,-0.002657842,-0.0013645588,-0.0006666014,-0.010601317,-0.029243018,0.0077742017,0.0044028647
0.14034659,-0.03057299,-0.35202658,0.080364265,0.04811744,0.076519154,-0.03490448,0.047527675,0.011409182,-0.08990819
0.0062608505,-0.084528156,-0.0012123468,0.00832504,-0.0007946091,0.036633383,0.0053806133,-0.009141639,0.0058172485,-0.025634767
-0.06616756,-0.009961169,0.010118138,-0.02563376,-0.03591323,0.052338798,-0.0036888055,0.0388223,0.025064966,0.05118059
-0.05937339,-0.043743957,0.026146807,0.05097231,0.06366823,-0.06891955,0.04106149,-0.043407977,0.027095998,-0.085809045
0.023298012,0.03728807,0.04786748,0.055872295,-0.08970113,0.07097745,0.07877481,0.053852174,-0.037478644,0.033367164
0.017759051,0.09068734,0.08735552,0.047328148,-0.09109059,0.012127711,0.04152146,0.022717591,-0.03553204,0.07209199
-0.2555378,0.14238527,0.060775198,0.13603055,-0.10729444,-0.2818765,-0.14435458,-0.027529357,0.030071376,-0.06147161
0.055255577,0.052564666,0.094807245,0.06419229,-0.04349779,0.066042304,0.06253223,0.015345458,-0.0058928225,0.011255718
-0.03847647,-0.05011628,0.03897055,0.067188315,0.015449304,0.13781144,-0.050711185,-0.11882849,0.03403138,-0.089981146
-0.18700437,0.01232047,0.16378076,0.12658769,-0.11045305,-0.09088675,0.016445039,0.09671771,-0.24644059,-0.063207425
0.07860486,0.002721394,0.03371242,0.052602373,-0.045325346,0.018140633,0.04483393,0.06971647,-0.048030715,0.019434394
0.032604013,0.0082798945,0.03771419,0.018065112,0.010499178,0.012061449,0.029027468,0.02364076,-0.01830046,0.056714673
0.022594752,-0.121631384,0.011864396,-0.058646623,-0.41289175,0.14928207,0.18882295,-0.038526773,-0.022263283,-0.11582811
-0.0045345095,0.014515564,0.05631741,0.012825919,-0.014566556,0.06855231,0.07608121,0.0858098,-0.051782757,0.02652819
-0.19194035,-0.113372035,-0.040110473,0.084629826,0.040044937,-0.058941726,-0.20283632,-0.19132565,0.10507197,0.14839509
-0.1885478,0.0058485554,-0.12558138,0.14303876,-0.062194154,0.17892893,-0.30953902,-0.21842368,-0.21112657,0.17739764
0.04010351,-0.023770668,-0.006377655,-0.0042447424,0.01239658,0.018929271,-0.077449426,0.056743342,-0.02149197,-0.019153701
0.026516937,-0.018673997,-0.021112898,0.017708227,0.07618563,-0.025374133,-0.006888225,0.041191366,-0.0055329073,0.010311393
-0.07921937,-0.051889002,-0.053392597,0.09284757,0.025657183,0.039797645,-0.042891666,-0.04067227,-0.06581736,-0.045263354
0.05877814,0.04577262,0.07237558,0.01633021,-0.034062337,0.09505617,0.081946366,0.048157904,-0.01645445,0.048464395
0.048791874,-0.030924696,0.08267936,-0.026420202,0.034870036,-0.032962967,-0.03132972,0.08571215,-0.09490579,-0.034348972
0.043042373,-0.103116095,-0.045572873,0.025845429,-0.094790325,-0.013935057,-0.07805643,-0.0672004,0.03914482,-0.09521563
-0.0056996807,0.017320061,0.031845972,-0.008838171,0.028591052,0.025762865,0.0012957085,-0.0056747263,0.05117183,-0.049939208
0.045095194,0.0021347594,-0.03245564,0.079301745,-0.010990399,0.070720255,0.03398681,-0.047194418,-0.008565579,0.04418616
0.072829686,0.090048626,0.052325603,0.089164,-0.08883997,0.032852776,0.0542169,0.054597013,-0.030752692,-0.011516055
0.058908597,0.042747084,0.039376676,0.04780963,-0.03470915,0.009234375,0.0055139977,0.05244453,-0.030666118,0.08659538
-0.009178961,-0.01641315,0.02559865,0.035052456,-0.012535815,0.058374196,-0.016355617,-0.039138418,-0.0021733392,-0.016677998
0.070349514,-0.0528881,-0.09234055,-0.037236907,0.12994649,-0.046424873,0.07319233,-0.03721576,-0.024173314,0.064819716
0.03952531,0.04412803,0.070267215,0.07238327,-0.087070584,0.06726892,0.013162417,0.02880699,-0.009014035,0.047188967
0.02952517,0.07501388,0.052719012,0.04025973,-0.07394392,0.08570567,0.01123817,0.042602774,-0.035439126,0.07644094
0.05167974,0.05708623,0.04441575,0.019985814,0.015741453,0.038176507,0.038405605,0.01953369,-0.0072217695,0.09658852
-0.04220457,0.06455634,-0.07132614,0.05867189,-0.06659478,0.092247635,-0.06322973,0.05594254,-0.0915728,-0.06535703
0.017349085,0.01639389,0.04836635,0.012778375,-0.052841123,0.010570935,0.07004391,-0.0017761885,-0.013108069,0.077018335
0.013537322,0.01903507,0.073794745,0.02995202,-0.019768974,0.029530698,0.02050438,0.060066473,-0.039980356,0.06602586
0.05990657,-0.03275484,-0.04617353,-0.09009608,0.045044675,-0.05430804,-0.03204683,0.08907903,0.08588274,0.039632637
0.04905044,0.017225496,0.055819433,0.0019239801,0.0052439133,0.07872582,0.04170475,0.027777217,-0.017247848,0.07601492
0.017790327,0.07746301,0.0049900026,0.04679782,0.040539533,0.071820036,-0.00698829,0.01694997,-0.024993142,0.0690999
0.094885625,-0.078195475,0.05376784,0.06933872,-0.022703279,0.06408122,0.057251528,0.022824224,-0.03765867,0.05271663
-0.09602761,-0.059895787,0.09179494,0.045032132,-0.043718673,0.13933805,0.035485562,0.03861785,0.11069265,-0.048906498
0.0374146,-0.0256894,-0.07149214,-0.08824491,-0.028936876,0.09512855,0.076142006,-0.06421624,-0.068296626,-0.0832706
-0.07918553,-0.03443448,0.04583133,-0.09015305,0.056836188,-0.05447293,0.08840923,-0.07112778,0.027591519,0.04972395
-0.07889387,0.026169008,-0.0047852597,-0.08498737,0.039005622,0.09747791,0.060589544,-0.06878791,-0.0028643892,-0.09127093
0.0534077,0.051872566,0.04327555,0.097112745,-0.06066583,0.075413056,0.019544369,0.0076526366,-0.042498175,0.052743327
0.024564918,0.029099291,0.045356564,0.078903906,-0.016158124,0.045436457,0.07288936,-0.005808575,-0.030789187,0.048493396
-0.07916538,-0.030114064,0.10476369,-0.042591266,-0.044089146,-0.011648944,-0.03949915,0.05657686,0.06049162,0.054856736
-0.005536947,0.018335296,0.048072465,0.03281607,0.009213313,0.07155468,0.013256142,0.013464016,-0.04151926,0.04149038
0.013957917,0.08780904,0.06509861,0.05517065,-0.017851084,0.028309284,0.00029888103,0.027943494,-0.016953543,0.06919933
-0.20585273,0.34636658,0.0732616,-0.115263455,-0.11737044,-0.20252778,-0.10153411,0.23230554,-0.31197834,-0.024395129
-0.06142335,-0.063855544,-0.024896711,0.042709764,0.036251146,0.06525689,-0.042475812,0.041258805,0.09409997,0.08051638
0.045644995,-0.030957045,-0.06773459,0.032863263,0.039014593,-0.02564484,-0.056429967,0.06270797,-0.052818183,0.028661892
-0.083746456,-0.028124107,-0.036451995,0.06100146,-0.049036365,0.0661134,0.05648019,-0.047710806,-0.080479376,0.029717712
0.0024981406,0.020504056,-0.02078871,0.050762083,-0.019865036,0.026247818,-0.027655788,-0.05570812,0.07728532,-0.016119858
0.025123533,-0.055758383,0.035178423,-0.09257016,-0.02479123,0.086041,0.046888586,-0.06152175,0.06596649,-0.058782727
-0.023850644,-0.009613129,-0.016967895,0.114679955,-0.017771969,0.009683017,0.04357172,0.015797075,0.014851469,0.00824714
0.0790131,-0.20172012,0.06852291,-0.042929318,0.07222634,-0.124109484,-0.15816082,0.058153354,-0.03529392,0.14807977
0.05782392,0.07711149,0.058505174,0.016288802,-0.08269938,0.053028356,0.025213992,0.059129726,-0.038280915,0.05312841
0.04807517,-0.07065897,-0.035537884,0.050192583,0.031919323,-0.095299624,-0.032723933,0.059917245,-0.04978577,0.069847874
-0.009214402,-0.0010532666,-0.018324934,0.008257373,-0.030320058,-0.03736781,0.024087721,0.01887281,-0.0016511047,-0.019131811
0.0655981,0.10287507,0.018118149,0.050848342,-0.088563345,0.055421837,0.035937924,0.026873423,-0.016934175,0.06534669
0.062227264,-0.069894,0.0028172743,0.037968725,0.11772963,0.0328224,0.029512163,-0.057014238,0.044300076,0.022118047
0.08674558,-0.12602387,-0.007911025,0.025240343,-0.172771,0.08550278,-0.059297375,-0.14730307,0.067583986,-0.032280896
-0.04499747,-0.04526021,-0.07074995,0.02859406,-0.04610762,0.037477963,-0.05406714,0.03395355,-0.06090529,-0.045959227
0.06325821,0.05367447,0.0802258,0.05509013,-0.023174543,0.05034014,0.043649394,0.015773298,-0.0071675386,0.016870996
-0.10276196,-0.07271787,-0.07024878,-0.013799906,0.020002294,-0.0017843874,-0.073190875,0.010686474,0.10662524,0.066678576
-0.02862317,-0.02525141,-0.024498723,0.081190154,0.02907532,0.07018518,-0.025894206,0.054414295,-0.058407374,0.051259946
-0.05839568,-0.06127765,0.17501132,-0.022594886,-0.032181125,-0.029947225,0.031740826,-0.011527839,-0.07543152,0.046219505
-0.06292353,0.045771677,0.026882496,-0.02124361,0.006041697,-0.037554946,-0.013543337,-0.016877789,0.0068366798,-0.013596512
-0.3370306,-0.01004778,-0.04053444,0.18038648,-0.102455914,-0.15053177,-0.15924963,0.23825987,-0.2417178,-0.26108804
0.039971374,0.00582421,0.030015882,0.013020783,0.0992138,0.077996366,-0.002568004,-0.00615223,-0.027584022,0.012495158
0.012388935,-0.02694996,-0.0027675433,-0.014964268,0.018012898,-0.016123114,0.025031295,-0.0031649536,0.018032493,0.049791664
-0.06581821,-0.033519324,-0.095401384,-0.10186996,0.05527191,-0.034561098,0.025384363,0.03753042,0.070533566,0.035547215
0.013097394,0.027854903,0.026830012,0.057160936,-0.026857156,0.0008387252,0.072217606,0.04030699,-0.048057754,0.0805808
-0.060015794,-0.015748773,0.006841487,-0.05358728,0.06884077,-0.07998741,-0.027821556,-0.04099401,0.05059919,0.039860852
0.029919555,-0.038256425,0.05189994,-0.04864459,0.06727646,-0.06266254,0.041258056,0.07780633,-0.06168342,-0.029500952
0.039937485,0.08338284,0.09397423,0.009708339,-0.08259164,0.038302813,0.005410456,0.03865344,-0.008781493,0.058404554
-0.038504377,0.020038037,-0.011761403,0.032063626,0.024641901,-0.044180106,0.0154261775,0.098147765,0.07790623,-0.027239457
-0.019115657,-0.051480513,-0.009234301,0.035624757,0.0021834292,0.020997038,-0.03128686,0.012821022,-0.004155968,-0.010961678
0.01871293,-0.0072591333,-0.036299728,0.037368782,0.07610165,-0.021926003,0.028436111,0.040877342,0.074039765,-0.03756902
0.030986212,0.05885667,0.048315458,0.050246242,-0.00060051883,0.0446265,0.010302531,0.06967349,-0.030827094,0.076807015
0.037280995,0.078018114,0.13482738,-0.08517346,0.0049953195,-0.06448559,-0.015947675,0.19455492,-0.03960836,0.05656199
0.062342968,0.053048845,0.027343212,0.0005448315,0.003723822,0.031072013,-0.012186021,0.045846924,-0.01901385,0.06452903
-0.02249624,0.025482194,0.030889126,-0.030477878,0.024191102,0.0068485783,-0.09453434,-0.07510872,0.004751929,-0.12031657
0.036827184,-0.051580854,-0.035843614,0.0210656,-0.02833968,0.0112158265,0.038582023,-0.02755246,-0.019972295,-0.017993346
0.04930692,0.07419127,0.048480075,0.06526299,0.0028828166,0.040209014,0.038622085,0.04020085,-0.0125133805,0.019356292
-0.011862303,-0.081029646,0.025563512,0.031988353,0.029313738,-0.12962097,-0.02505543,-0.02078348,-0.051886685,0.06485769
-0.07434421,-0.06166146,0.028505594,-0.07213532,0.057140976,0.042222224,0.047140412,-0.029062765,-0.06217587,-0.05821242
0.0076411953,0.06170518,0.073878825,0.046661746,-0.03879819,0.046082873,0.055699375,0.010597052,-0.05413987,0.046218228
0.0095874155,-0.08258489,0.013890181,0.041390367,0.027171928,0.023929873,-0.042452734,-0.059465237,0.037895616,-0.023586014
0.084684856,-0.31571895,0.09484263,0.08859124,-0.28046829,0.05427562,-0.26208824,0.22810459,-0.04732993,-0.044371217
-0.028351465,0.0752574,-0.035304073,-0.094520636,0.042643912,-0.045488782,-0.032103885,-0.038027577,0.032431815,0.07773634
0.049794346,0.06845608,-0.0008287865,0.04315858,-0.053355645,0.03541021,0.029405184,0.064848185,-0.042516205,0.02756122
-0.037422746,-0.011068467,0.019568348,0.032528106,-0.03161507,0.037094414,-0.055733997,0.019380087,0.013164408,0.01674561
0.091809765,-0.034844704,-0.049529098,0.116905205,0.078457005,0.0052751694,-0.14433423,-0.10365585,-0.006551229,0.3040758
0.20656748,-0.037056178,-0.017032351,0.057026386,-0.13873895,-0.06691587,-0.10956688,-0.07875476,-0.10112027,-0.10981506
-0.24126953,0.04593267,0.0063235466,0.0677509,-0.13300264,0.13590966,-0.2180153,-0.12880027,0.041750047,0.040744167
0.032998588,-0.05924322,0.0006724104,-0.075664245,0.0641611,-0.04991795,-0.0777703,0.028642172,-0.053221922,0.086440295
0.012341258,0.035875697,0.0632047,0.074151576,-0.018312722,0.035653833,0.10146813,0.0417839,-0.024538344,0.0144017255
0.01448905,-0.013396944,0.009486663,0.041080963,-0.07097097,-0.02874833,0.028206432,0.030465746,0.011107737,0.005520155
-0.022746043,0.027863646,0.060172636,0.10623377,-0.08462253,0.009231637,-0.06303102,-0.03488925,-0.029888509,-0.0516168
0.048727613,0.022801952,0.073025525,0.012555189,-0.025966065,0.06358096,0.027587755,0.013735512,-0.049179904,0.01415999
-0.048160043,-0.028547687,-0.05746586,-0.06793841,0.036371585,-0.031151284,-0.0561442,0.04746104,0.05362941,0.027234714
0.034501396,0.052740473,0.014015313,0.047725145,-0.065110885,-0.02413911,-0.039467458,0.024154216,0.0015948084,-0.03845543
0.029805392,0.2410029,-0.13723624,0.011697543,-0.083092526,-0.12500152,0.11098911,-0.18848105,0.019548528,0.1402721
0.038945764,0.041079216,0.06007576,0.056496978,-0.021618739,0.096078366,0.0016767891,0.066641726,-0.023878384,0.053173587
-0.057232168,-0.015162216,0.05606883,0.033030264,-0.007835003,0.014108384,-0.027215045,0.040170375,0.028178636,0.019558756
0.036382515,0.035478555,-0.0018805681,-0.0125927655,-0.04320205,0.052650247,-0.0022745007,0.13675283,-0.07653785,-0.07550238
-0.07530691,-0.041083075,-0.06560064,-0.070463255,0.083343856,-0.07523509,-0.013924713,0.028425356,-0.04928069,0.05876091
0.082556255,-0.0785555,-0.06970471,0.010391271,0.045620337,-0.05614043,0.07491112,-0.018752843,-0.067870446,0.045555018
0.006853379,0.046968684,0.07378913,0.045622155,-0.060354654,0.065945715,0.0442818,0.020112867,-0.03347935,0.03295377
0.029222827,-0.08646651,0.042585332,-0.004547353,-0.022761079,-0.0072564487,-0.023865638,-0.0764121,0.06676034,0.04503364
-0.02121675,-0.21718241,-0.057135556,0.050089538,0.05740798,-0.058057148,0.0078015546,0.07826161,-0.023524866,0.002174884
0.011503288,-0.037986718,-0.031048177,0.0027544491,0.044268005,-0.049700122,0.032072514,0.042342644,-0.006357221,0.023801941
-0.035417352,0.0167223,0.03150196,0.07274935,0.104682185,-0.067813866,0.00075495435,0.078926556,0.018491557,0.035067763
-0.063499495,-0.08275195,0.063344285,-0.028553843,0.031956874,0.10935009,-0.002434707,0.0071793655,0.03441997,0.013705948
-0.04092133,-0.045556676,-9.342864e-06,0.039024793,0.036931187,0.06331113,-0.071722455,-0.020010618,0.07345622,0.094467275
-0.0035941089,-0.09031824,-0.17849405,0.023654945,-0.23613408,0.104895875,0.11483685,-0.0655742,-0.021474347,0.04058788
0.05754363,0.020313358,0.08372574,0.07296341,-0.03822564,0.054213244,0.053373598,0.00042715634,-0.006571545,0.071101986
0.057249345,0.019628853,0.054172773,0.0337807,0.025242135,0.05087564,0.06908776,0.040124573,-0.014175266,0.058113866
-0.046630222,0.09228359,-0.012009731,-0.0049416153,0.002092871,-0.019441362,-0.036643777,0.012147846,-0.004473039,-0.0063518705
-0.040672064,-0.043243084,0.01678037,-0.023682171,0.03318085,-0.0037484867,0.008706709,0.02639495,0.004424263,-0.004229592
-0.1532249,0.16793354,-0.03420318,-0.18320528,0.09583514,-0.34042674,-0.025302975,0.13815099,-0.26413116,-0.02953371
0.012919425,0.037472423,0.02745656,0.02848617,0.05004474,-0.03326235,0.017262818,-0.043016408,0.015263268,-0.07227109
0.042047895,-0.012356474,0.025658853,-0.014455635,0.048222803,-0.026318561,0.046753705,0.026271213,-0.028512655,-0.0004677891
0.08012814,0.0026256384,0.03294143,0.059852444,-0.03931691,0.028039292,0.033846024,0.049600214,-0.040627718,0.0119205415
0.17635278,-0.0020270455,0.1407364,-0.14139736,0.037015818,-0.119807824,-0.07557485,0.08026971,-0.095041454,0.035936706
0.035314847,0.012983689,0.011116951,0.055585712,0.06680974,0.054071587,0.06674532,-0.011193341,-0.037544325,0.053860344
-0.06579791,0.07727116,0.06910112,0.036931645,-0.051041618,-0.02455104,-0.06674913,0.041590113,0.035835065,-0.05150355
0.061861888,0.05112777,0.06965311,0.04545853,-0.07505681,0.009282156,0.026853334,0.058067713,-0.05091025,0.059104566
0.02829267,-0.040756825,-0.06598765,-0.05262345,0.08860104,0.040711973,-0.051749308,0.075562514,0.092493065,0.024467193
-0.10545367,0.03373759,0.077970386,-0.092588946,-0.021159308,-0.052098487,0.063165314,0.02152496,0.012429027,0.07056814
0.023563894,0.06898857,0.06681601,0.06418163,-0.02530583,0.041925903,0.028155927,0.019601123,-0.010412751,0.057427566
-0.18416642,0.26567736,0.092149846,-0.112100914,-0.0660002,0.10303935,0.0106459735,-0.038385876,-0.054363914,-0.19888698
-0.12302489,-0.03107598,0.01553911,-0.031166136,-0.045257255,0.015666926,0.06664464,0.052254647,0.06389857,0.050699398
0.124997586,-0.15909375,-0.0052100546,0.046854723,0.11763806,-0.037102193,-0.045441657,0.057648238,0.027745405,-0.067758285
0.083924815,-0.08364554,-0.063312136,-0.07439164,0.05074778,-0.058253787,0.10981388,-0.014557343,-0.008102892,0.00964119
-0.06521863,0.11108,0.024544964,-0.023403164,-0.03389144,-0.034801695,0.04216692,-0.002468085,-0.0015929503,-0.050500926
0.2100495,-0.029122321,0.03537769,-0.044709913,0.018356165,0.019011334,0.06731717,-0.1635249,0.042184323,-0.1831539
-0.13065138,0.15047196,0.1606604,-0.06349208,-0.098357506,-0.15415494,0.02121394,-0.099879004,-0.1737279,-0.27648303
0.016522937,0.058042593,0.012997494,0.054315448,-0.0058154124,0.078133695,0.0123288985,0.021024702,-0.023964783,0.06280642
-0.09917326,0.024247637,-0.09687742,0.01933822,-0.06413687,0.09273795,0.009261042,-0.08573158,0.06760392,-0.017345622
-0.05494751,-0.07018126,0.027343735,0.01564792,0.0394903,0.020769015,0.03830977,-0.006023959,0.027065804,0.044367857
0.003384487,-0.013960454,0.042896014,0.007224053,0.040436752,0.033282384,0.039293863,0.06637425,-0.05040868,-0.03688031
-0.19512469,-0.03692138,0.04440085,0.047010377,-0.06875832,0.009951021,0.052102357,-0.02393532,0.105776206,-0.15639092
0.012972356,-0.022405542,0.040558152,0.0007512193,-0.029352179,0.013375718,0.0073531363,-0.018516388,0.014348626,-0.015996046
0.033318177,-0.039586898,-0.03730614,-0.074315876,0.09234905,0.059469916,-0.07609011,-0.042852897,0.030537192,-0.084758475
0.010888784,0.07432307,0.04604001,0.0775093,-0.0558052,0.045762006,0.050235033,0.0022546866,-0.036250502,0.0058479863
0.036124706,-0.044452675,-0.049084038,0.027492566,-0.033715174,0.056501836,-0.043798096,0.035699323,0.06653405,0.048621558
0.061032858,0.023148699,0.022924908,0.044748634,-0.0059300074,0.091364615,0.093921885,0.06406457,-0.033023633,0.055615354
-0.01394589,0.065060385,-0.01226904,-0.0012214577,-0.034026675,-0.05864836,-0.046853654,0.022037752,-0.0023790863,0.038269
0.06256042,0.08034012,0.010446579,0.07523112,-0.04557197,0.077880114,0.07973632,-0.022647683,-0.014157887,0.08222369
0.03220517,-0.04554393,0.004203314,0.004040188,0.0057730325,0.018806037,0.010064182,0.003773301,0.016120765,0.038944997
0.041070137,-0.03591953,0.082297556,0.06785229,0.033491492,0.03599277,-0.058088124,-0.033463284,0.04595034,-0.09132909
-0.013059174,0.02370092,0.062909655,0.039620936,-0.06269109,0.017737955,0.03781871,-0.025770962,-0.057368446,0.046325553
0.037492014,-0.09489011,0.11530621,0.042746376,-0.026367266,-0.0067089796,-0.025894163,0.06090731,-0.010983465,0.09438848
0.036040377,-0.011169892,0.018282935,0.030116213,-0.015106863,0.015244309,0.0052071083,0.12706885,-0.059229936,0.013757395
-0.03518808,-0.008624402,0.041968428,0.01822658,0.00027356794,-0.0619615,0.006623699,0.0052310396,0.06360926,0.029748464
0.033558335,0.01618921,-0.0059537785,-0.048219148,-0.02876213,-0.029227054,-0.024896767,0.0016508572,0.019748148,0.030791799
0.049834106,0.059601296,0.0014098174,0.071696885,0.031818748,0.042512145,-0.07475717,-0.045538265,0.033405755,-0.04816639
0.10408018,-0.19372076,-0.01997001,-0.008765745,-0.19887552,0.07775543,-0.033846185,-0.22597969,0.10388818,-0.08269815
-0.3277685,0.009469591,-0.03729979,0.20479022,-0.022717128,-0.15942281,-0.30337176,0.087769635,-0.10453183,-0.21292965
0.03177995,0.018540954,0.022901649,0.020700902,-0.051671352,0.07676805,0.051003058,-0.0312274,-0.024518669,0.044513613
0.047285195,0.09139211,0.03417437,0.093800284,-0.031917028,0.0391376,0.061267063,0.05653679,-0.015832473,0.023281079
-0.021711467,0.05989479,-0.018022161,0.0278087,0.042738076,0.07069834,-0.088617384,-0.048881806,0.03261478,-0.092450134
-0.16256858,0.019778837,-0.06454455,-0.17175412,0.09476108,-0.10638424,-0.15792009,0.15743004,-0.014977161,-0.018357845
-0.057566576,-0.051197834,0.09220789,0.04163252,0.033838503,0.094255425,0.076350324,-0.036515363,0.033345968,-0.028017627
0.030903386,0.039740864,0.0773219,-0.03826625,-0.013881058,0.035968214,0.12517028,0.019727021,-0.037031412,0.018153219
-0.012501355,-0.041852865,-0.011972875,-0.02602194,-0.034619804,-0.00046650134,0.04947858,0.04093012,0.0041024755,-0.0018503433
0.05623803,0.07195464,0.08354625,0.044290394,-0.09906252,0.09524972,0.068013154,0.007559531,-0.020231258,0.00314124
0.0643296,-0.1404707,0.06149873,-0.049950883,0.020860575,-0.073739074,-0.070606634,0.037268266,0.06576354,-0.033036925
0.046799377,-0.041208826,-0.042385247,-0.027466234,-0.030494481,0.054442808,0.034916557,0.036054533,0.0004255491,0.039323024
-0.055670273,-0.026733553,-0.07963479,0.046450574,0.07194037,0.041782852,0.049408253,-0.09305863,-0.032905877,-0.08102673
0.029667512,0.04660506,0.022387842,0.043805003,-0.07104642,0.069775805,0.08326729,0.01911531,-0.0071530878,0.049198255
0.021636909,-0.002237547,-0.0007846182,-0.02967974,-0.03319127,0.05236708,-0.04412142,0.033956293,0.002307536,-0.008422238
-0.06616226,0.06741718,0.027002735,-0.048762,-0.023332814,-0.015401307,0.029118536,0.027655521,0.007643384,-0.0026727614
-0.03506572,0.08533684,0.037450533,0.04443244,-0.094676346,0.05977247,0.08051005,-0.0635928,0.0041414606,-0.07543306
-0.040566172,-0.11561525,-0.110653006,-0.10130378,-0.03887117,0.1774003,-0.19105126,-0.08203528,0.07429483,-0.03489415
-0.13590567,0.07481327,0.08475846,0.012326415,-0.08292275,0.029819116,-0.19079867,0.15740572,0.006149443,-0.107639864
0.029257324,0.06996004,0.027570017,0.047111537,-0.081011176,0.0728904,0.011889392,0.031256136,-0.021865783,0.042304117
0.049128637,0.020234047,-0.01917949,0.055868782,-0.010470819,0.016932884,-0.03730902,-0.038329877,-0.010878656,0.00402854
0.00810449,0.045673233,0.055844564,0.035485186,-0.07131408,0.07649175,0.010532239,0.031283397,-0.044037055,0.05518972
0.039744962,-0.12185828,-0.037834547,-0.025878683,0.030429091,0.04654688,-0.05077977,-0.0019500564,0.08563411,0.017119354
0.02295442,0.06340123,0.0148165235,0.057983134,-0.041204706,0.033372413,0.017214322,-0.0008596336,-0.0077300137,0.05132825
-0.05113975,0.07292633,-0.03790643,0.08098901,0.059343033,0.048340004,-0.034843434,-0.028761761,0.03972872,-0.06629448
0.12820454,-0.1548254,0.07225436,-0.13397202,0.014857078,-0.14007689,-0.11194239,-0.012014856,0.027727967,-0.016061798
-0.08855108,-0.026796812,-0.05802214,-0.08651751,0.04142326,-0.07849083,0.03786035,0.035414044,0.08861729,0.028665775
0.08070071,0.013454056,0.03482095,0.09127738,-0.05862012,0.041604355,0.04332172,0.031296704,-0.013882269,0.072761685
0.00083064195,0.08763674,0.13575241,-0.021589998,-0.09013162,0.027638648,-0.033519447,0.23544641,-0.052720714,0.009317085
0.016624775,-0.054512773,-0.0647026,-0.02008926,-0.043640126,-0.08789657,-0.050612066,0.08066985,0.027902136,0.029694099
0.029400075,0.011739653,0.07962796,0.015250736,4.078686e-05,0.018540684,0.063659586,0.058351453,-0.044944875,0.065221325
-0.038005434,-0.052626844,0.019135566,0.05551092,0.015547461,0.009699708,0.024492387,-0.009625991,0.05478527,-0.017020442
0.005394197,-0.0020878075,0.015929468,0.022063982,-0.029388942,0.06531913,-0.05542499,0.052984707,0.013297529,-0.0263408
0.042892065,0.028838798,0.006039168,0.067507125,-0.0033471237,0.051719848,0.050018188,0.045179896,-0.05776565,0.049301393
0.051653825,-0.05172499,0.014740222,-0.036579147,-0.028601367,0.031145731,0.04636199,0.034223944,-0.006310022,-0.022375794
0.06448636,0.06344248,0.04723853,0.07314517,0.01581218,0.014404989,0.01521276,0.016902016,-0.015418752,0.09342247
-0.08813927,0.0803128,-0.030252503,-0.08612324,0.0799628,-0.029634373,0.07745984,-0.03209823,0.028281897,0.07630203
-0.01693842,-0.006787322,-0.02535864,0.024874397,0.025458843,-0.014594944,0.008023414,0.017037718,0.02814986,0.014066826
0.060032852,0.0699918,0.029382855,0.038437143,0.0137671465,0.09453716,0.0055805105,0.064464614,-0.030150361,0.055727098
0.041331913,0.04962202,0.071147926,0.08665565,-0.042591818,0.036477868,0.032821026,0.03984723,-0.030728454,0.07253586
0.13370915,-0.045667525,-0.14124773,-0.08562251,0.069032386,0.085715614,0.24689749,-0.32777613,-0.11183609,-0.22345726
0.060523305,0.08109982,0.050527245,0.059871864,-0.07110595,8.3301886e-05,0.040303174,0.03172299,-0.011834632,0.050824452
-0.06382935,-0.15286127,-0.022755546,0.0996638,-0.021805273,0.012607177,-0.010692546,-0.047340393,0.13997033,-0.0035602932
-0.16693845,-0.07935032,-0.06976141,-0.24184604,0.07802676,-0.18985938,-0.11964412,0.081143074,-0.06701664,0.0484089
0.043944586,-0.0033988836,0.04472834,-0.010343806,0.08802442,0.060854733,-0.046027564,0.0664199,-0.12825474,0.04401683
-0.00782153,-0.05648533,0.019546008,-0.047787894,0.0373045,-0.05336131,0.065623224,-0.04601277,0.019868206,0.030006628
0.10217872,0.034745086,-0.07905848,-0.11324642,0.010743181,0.02672645,0.0012583154,-0.039620306,-0.0397253,-0.088922694
-0.02428535,0.0032350465,-0.02454009,-0.009897112,0.016333163,0.04539172,-0.090094164,0.06056216,-0.012459677,0.0041741803
-0.050540324,0.05178696,-0.07643268,-0.033243507,-0.0489493,-0.04443719,0.045193676,-0.050346065,0.050713737,-0.093216665
-0.0086481515,0.075380675,0.0341597,0.083316006,-0.04719165,0.019634536,0.019229952,-0.039529804,-0.031663023,0.0038251032
-0.06829575,0.037250217,0.0094930865,0.09290935,-0.038893323,0.0045080082,-0.12381584,0.023939544,-0.08160251,-0.032856308
0.009731028,0.0627025,-0.021075858,0.10556925,-0.075628564,0.08332549,-0.05828075,-0.04811769,0.018380417,0.03000224
0.034819346,0.0738723,0.009447359,0.06271608,-0.026964845,0.07845371,0.0035553721,0.016058182,-0.022983707,0.090803996
-0.0566591,-0.043198552,0.043566883,-0.036638133,0.032007232,-0.071487635,0.041071422,-0.09497406,0.039593454,-0.06057444
-0.04087048,0.07896895,-0.10199942,0.048569422,0.032508038,0.061373435,-0.08730217,-0.079237446,0.040110733,0.016083919
0.089698374,-0.05205451,-0.0634332,-0.08471578,-0.0103466185,0.016593987,-0.022506613,-0.06520749,0.020768028,0.06765313
0.057063334,0.01813139,0.029210676,0.0038850994,-0.041104615,0.043248996,0.06348054,0.06714931,-0.029034745,0.036649153
0.072754145,0.008698834,0.014534294,0.05715653,-0.08868895,0.08282048,0.031690374,-0.0036892742,-0.044060927,0.033684574
-0.07328237,0.06996179,-0.05802783,0.07677717,-0.084064364,0.047219705,0.024500381,-0.044565864,0.025242336,-0.06618965
0.10070047,0.007061988,0.04193515,0.047647815,-0.006074386,0.06229878,0.026402,0.0086012,-0.03515083,0.019650355
0.045781627,-0.036928233,-0.09305602,0.049274594,0.059467368,0.055279948,0.07289266,-0.07640027,0.062330365,-0.056494202
0.027382117,-0.032527126,0.051107127,-0.02250854,0.035999365,-0.042853136,0.04128167,-0.0224186,0.062361155,-0.035187565
0.033225205,0.033189032,0.014600604,0.03602885,0.038806785,0.04503157,0.068327725,0.012464765,-0.03540699,0.07096791
-0.06891158,-0.053695913,-0.05513589,0.050753597,0.032512415,0.029371457,0.07674816,0.05114615,-0.035420865,-0.036568496
0.020202257,0.036512163,0.04522832,0.094679765,-0.05414428,0.06245678,0.04680729,0.0055636764,-0.025527278,0.074153945
0.030326985,0.050820734,0.08783455,0.085587546,-0.022775069,0.03936154,0.056389153,0.062115353,-0.028905312,0.038840264
0.004284989,-0.08012396,-0.0954495,0.025459414,0.038675163,0.056921612,0.059467018,-0.006967675,0.016025536,-0.0138532445
0.06464436,-0.065145545,-0.012457149,-0.030953096,-0.081641525,-0.05020572,-0.03569369,0.043556727,-0.04509537,-0.061317917
-0.05995355,-0.04244732,-0.0604308,0.08882827,0.05077056,0.034459244,-0.028825246,0.07837438,0.07037875,0.082129866
0.032097712,0.003916254,-0.0031543565,0.07118423,0.005519375,0.041247465,-0.033338804,-0.00031332823,0.025972815,0.015082812
-0.014818466,-0.050245848,-0.0059106387,0.072675355,-0.060931202,0.05839566,-0.03888843,-0.015480792,0.009400222,0.040531814
0.0062019853,-0.0406317,-0.038624592,0.0073317676,-0.043936916,0.027672723,0.03961041,0.05195812,0.00027603522,0.039647467
-0.050277203,0.0062294365,0.030887129,0.03610635,0.027697418,0.0070295385,-0.03025515,0.038893294,0.01570164,0.04146161
0.21960288,-0.12861706,0.084560215,-0.16550252,-0.07388942,0.04923724,-0.010979117,-0.12814446,-0.22554153,-0.02160335
-0.03025385,0.015960949,0.037257783,-0.0012747823,0.05201733,-0.034499858,-0.043170538,0.012249118,-0.020354753,-0.012929495
-0.07911451,-0.029344564,0.009107244,0.07730054,-0.051037516,-0.036600765,0.004378218,-0.12837239,0.08164648,0.05689944
-0.062137462,0.10658722,0.0026363118,-0.027884746,0.024337118,0.010377024,0.08176563,0.0077251648,-0.055674106,0.06577444
0.0127848685,0.07290267,-0.018357003,0.031825583,-0.057857253,-0.02777239,-0.056608316,-0.09247755,0.04766441,-0.06978955
0.03743988,0.013945931,0.038924556,0.0011125575,-0.013351275,-0.005649452,-0.043175723,0.007820687,0.044876415,-0.039412037
-0.03259453,-0.03142689,0.046540454,-0.0016034514,-0.026746498,-0.04623974,0.05181918,-0.08153925,0.032677878,-0.09292
0.06271649,-0.03968557,-0.057738252,-0.05672289,-0.03362296,0.040019285,-0.06459307,-0.036896672,0.06942831,-0.03860857
-0.012696695,0.031643294,0.009969277,0.09232914,0.00979457,-0.03033391,-0.032990195,0.016517399,0.109295934,-0.030259693
-0.028487884,-0.026040828,0.05104034,-0.03778285,0.052126117,-0.05716986,0.094639845,0.05253996,0.037058312,-0.02869281
0.04205354,-0.017058063,0.0509621,-0.006163913,0.0008805207,-0.034190334,-0.00016572693,0.032909032,0.0061392733,-0.021096462
-0.03780298,0.02929608,0.02662825,0.0020301356,-0.023894548,-0.02297379,0.0013981297,0.012291821,0.008459818,-0.024637943
-0.080504864,-0.042421713,-0.020790767,-0.062387425,0.04896931,-0.034860246,-0.05868362,0.04632889,0.08341068,0.045932367
0.085546404,-0.05866121,0.09135296,-0.020960532,0.0233964,-0.017753543,0.107820414,0.10084582,-0.002992538,0.059448782
0.17014073,-0.033646103,0.13595355,0.06829052,-0.32140362,0.04677859,-0.14605072,-0.100442715,0.09125599,0.06100428
0.048762538,0.00741489,0.017179333,0.042804074,-0.07165717,0.038574178,0.013736053,0.059798833,-0.047660735,0.02743964
0.025945587,-0.019341223,0.01859122,-0.083314985,-0.012667589,0.0018220388,-0.09035511,0.101821244,0.03407779,-0.017256951
0.10280372,0.015401379,0.04870019,-0.09945412,0.026116874,-0.16754687,-0.026934892,-0.02436335,0.053440962,0.06941792
0.0227002,0.041558407,0.0814357,0.045242406,0.04105388,0.010196799,0.013577021,0.023530459,-0.020823244,0.076801635
-0.007975254,-0.029210443,0.02343739,0.06370809,-0.138563,-0.027663246,-0.012166098,0.046328425,-0.025116086,-0.00793018
0.033290703,-0.09298853,-0.093379214,-0.0605939,-0.09205247,0.071296126,0.038214672,-0.06268315,-0.07688966,0.028865876
-0.051766895,-0.039751433,-0.06723345,0.03978552,0.10116142,-0.050490092,-0.18102768,0.009351851,0.06022257,0.045806628
0.045167524,-0.049274176,-0.0057107615,-0.018182034,0.04279212,-0.058600128,0.07876093,-0.0711459,-0.03116367,0.019701114
0.057926286,0.07235803,0.029457381,0.032295648,-0.0724435,0.05422543,0.03419729,0.04258872,-0.0089414865,0.06724033
0.15126748,-0.1944465,-0.3462618,-0.058156643,0.08170332,0.07657584,-0.04351662,0.032590125,-0.0855781,0.0356387
0.09969188,-0.026263533,-0.004127005,-0.014287594,0.13201462,-0.015312607,-0.03452471,0.10295784,-0.042400017,0.05113057
0.08812265,-0.44087455,-0.04254123,-0.14649571,-0.05614234,-0.06162361,0.04374254,0.018851623,-0.09161849,0.16538374
0.06270663,0.07981534,0.033353306,0.09504132,-0.030615643,0.06418415,0.02903178,0.054213542,-0.0099089295,0.054650974
-0.0612956,0.08267784,0.21615969,-0.114972614,-0.14208594,0.050588045,0.027462153,0.00815862,-0.043092135,0.112722754
0.068647936,0.0976372,0.095311165,-0.009491572,-0.054453023,0.017398896,-0.03600837,0.01931409,-0.035415318,0.07969668
0.0015567228,-0.059735376,-0.015402229,0.033427823,0.009656191,0.023057107,0.04006551,0.005750328,0.024441153,0.041962795
0.012439288,-0.111996576,0.01612034,0.019901382,0.06729291,-0.023368282,0.027927013,0.007798765,0.06947854,-0.00904267
0.015833564,0.04193622,0.06250884,0.06563268,-0.022002593,0.044151783,0.039841376,-0.008051462,-0.010629324,0.02147795
-0.04864394,-0.0902523,-0.06377806,0.028840134,0.040006742,0.060985826,-0.1178662,0.045103688,-0.009267613,0.06476158
-0.07580815,-0.081952944,0.07940185,-0.028524503,-0.0012203216,0.009681351,0.05255328,0.034938846,-0.01788683,0.07163303
0.04417117,0.007502408,0.016434047,0.0140751125,-0.04501644,0.025024978,0.0968369,0.016330693,-0.050159026,0.038249068
0.043245878,0.08136446,0.076399244,0.065654345,-0.016352301,0.023636732,0.016442629,0.06116746,-0.013429578,0.06781256
0.04328587,0.052226156,0.05603994,0.07977468,0.0036071264,0.021282928,0.022385223,0.019003753,-0.029519908,0.029600443
-0.087135985,-0.03129206,0.028713476,-0.081345275,0.027751544,-0.056002367,-0.082807854,0.047591336,0.07329299,0.062240165
0.027576424,0.055274542,0.017609524,0.03969141,0.023960195,0.041687597,0.027159287,0.0401837,-0.039606016,0.079588026
0.029220143,0.03537891,0.06615372,0.0071774637,0.008326939,0.027130565,0.10980616,-0.007832953,-0.019677732,0.04241845
0.0020994975,0.024901368,0.0052609956,0.07085145,0.030834787,-0.014296409,-0.051721796,0.025847847,0.008940214,0.015821518
0.040584616,0.071481526,0.028579488,-0.008917405,0.025585806,0.029048042,0.062120397,0.035460845,-0.012159457,0.06781532
0.030581102,0.044429414,0.04488798,0.039936714,-0.036895223,0.0041745463,0.04519063,0.03796249,-0.030049352,0.076437965
0.075085506,-0.0403037,0.01835333,-0.104096934,-0.09060249,-0.05039375,0.06425974,0.026499894,0.018728578,0.048612118
-0.014345442,0.04459209,-0.023923153,0.012519793,0.008964513,0.036662076,0.06845975,-0.04666968,0.030410808,0.04891102
0.05796984,0.0057155313,0.077341355,0.037760813,0.016763872,0.05475511,0.05276029,0.06027545,-0.014628458,0.06517533
0.051638123,-0.023148406,-0.03587237,0.013566879,0.049162053,0.053958792,0.013395343,0.013720606,-0.041952543,0.031689126
0.058733568,-0.09145584,0.05147178,0.08405424,-0.3088462,-0.07031883,-0.18542361,0.06549036,0.071233064,0.05211031
0.06133846,0.010706573,0.010423383,0.055517912,-0.02160006,0.053635057,0.046402533,0.007674399,-0.037750382,0.07490473
0.055405967,0.06548944,0.08829753,-0.027607024,0.032404557,0.06704575,-0.05347138,-0.09067522,0.010094122,-0.049153768
0.01477501,0.030522717,-0.21068723,-0.22738488,0.10038896,0.059607763,0.18580157,0.017285509,-0.052585077,-0.23275453
0.069126375,0.026409868,-0.042696543,-0.007720318,0.04332042,-0.078853406,0.011041893,-0.015510687,0.02480476,-0.033842698
0.038287636,-0.026406897,-0.034944836,0.05511282,0.037053976,0.06656201,-0.046662632,0.08573014,-0.09244383,-0.04326626
0.024658794,0.10367667,0.012252007,0.02083259,-0.046766296,0.0641376,0.010809817,0.033813022,-0.0043713334,0.07872824
0.04502922,0.018534558,0.017504117,0.03220134,-0.05584141,0.067667976,0.09699773,-0.0008261462,-0.020074356,0.03163786
0.031357374,-0.089397416,0.010120924,0.0037518488,0.058161736,-0.056347586,-0.018815383,0.07751586,-0.009681505,-0.038787033
0.027255364,-0.0823992,-0.059931986,0.090382084,0.038531814,0.05857178,-0.062048025,-0.025472077,0.041419588,0.051332228
0.047778055,0.013797626,0.029331746,0.08498832,-0.0066836653,0.03170456,-0.016019585,-0.035312198,-0.040823303,-0.0049468093
-0.01589548,-0.09551788,0.017281884,0.0097338455,0.08891836,-0.03560794,0.02164399,0.036234252,0.0060706465,0.011819904
-0.032480437,-0.060932107,0.048670735,0.044361506,0.08201763,-0.03016517,0.055697657,-0.042546943,0.03384876,-0.04804965
0.011660899,0.027224861,0.014630685,-0.0038176295,-0.032950033,-0.008387064,0.019359441,-0.030834723,0.015549942,-0.004608516
0.07663446,0.0276543,0.069418535,0.09554704,-0.04056894,0.03650041,0.053182226,0.032979134,-0.03938571,0.018037708
0.015423486,0.06140062,0.077115074,0.050295644,-0.052939594,0.057913523,0.07130838,-0.0005588702,-0.011254088,0.036189184
0.06857132,-0.08008844,0.036955234,-0.045064636,-0.094518945,0.026356783,0.024972124,-0.047536064,-0.0593277,-0.052003372
0.07963504,0.005061243,-0.005816031,0.017648386,0.036266815,0.029022923,0.0038544077,-0.006633154,-0.015287489,-0.0198579
-0.07023933,0.0043176794,-0.08350077,0.011488393,0.0667815,0.04196295,0.015453428,-0.03327748,0.06669793,-0.0047658044
0.022741819,0.06909046,0.038777184,0.026622128,-0.018331347,0.074672,0.017810015,-0.011655513,-0.014260795,0.043182224
0.06617898,0.0356437,0.042978875,0.03248522,-0.04664301,0.04243988,0.03893345,0.048906885,-0.016265517,0.068638004
-0.043885406,0.04413612,-0.044046067,0.06932908,-0.06798418,0.027268633,-0.037533306,-0.09159087,0.05628306,-0.06373419
0.009538621,0.023356643,-0.015840903,0.008688498,0.023900416,-0.025592508,0.017909182,0.039540797,0.011754288,0.006101369
-0.025163086,0.07295864,0.02010346,0.0103967255,-0.034287397,-0.041833896,0.025005665,-0.023066308,0.00724722,-0.04989015
0.01286039,0.08811284,0.0112115685,0.057520118,-0.08765027,0.036214128,0.03435265,0.05286718,-0.013761489,0.013291054
0.060338996,0.01873257,-0.033429757,-0.013455033,0.02060505,-0.010473093,0.00056702516,0.05080268,-0.03376416,-0.001194418
-0.008415021,0.035815284,0.0081960475,0.009675009,0.0276344,0.017893009,-0.03189142,0.018548634,0.029935142,0.057864457
-0.004169734,0.07354183,0.07719581,-0.047924753,-0.016262546,-0.18319234,-0.07076969,0.01632448,0.09948707,-0.13508143
0.071864106,-0.03926039,-0.06399143,0.045542747,-0.082611576,0.049654003,0.034421198,0.049557853,0.048987027,-0.044215202
0.007589203,0.08319408,0.03341104,0.020448215,-0.0600526,0.08780023,0.07140765,-0.006156169,-0.029818408,0.030716807
-0.0061702016,0.040735718,0.07591743,0.018584602,-0.05183149,-0.00097881,0.013887698,-0.0012765632,0.014234051,-0.032602727
-0.00712303,-0.034388162,0.010076042,0.04206741,0.022365455,0.015796576,0.0515068,0.017377699,0.0074432506,0.058013257
-0.06252981,0.04969974,0.00017140775,0.10715265,-0.09646712,0.0016696544,-0.00675748,-0.010923761,0.03664828,-0.083795555
-0.091991216,0.045473713,0.044730928,0.024738774,-0.043551553,0.08202061,0.056986164,-0.033990372,-0.052259963,-0.08465453
-0.09307201,-0.051437475,-0.037559535,-0.04032189,0.06950064,0.0777244,-0.038384687,0.037733633,-0.06427096,0.08056802
0.022900961,0.107083134,0.059559282,0.026372673,-0.09699544,0.06204104,0.016520778,0.030153653,-0.007283743,0.0481933
0.06461645,-0.043095887,-0.07564324,0.03308401,-0.049000934,0.08241332,-0.025581168,-0.060386844,0.043809038,0.013613636
0.06881453,-0.05787661,0.060729712,-0.30530667,0.15308598,0.008164917,0.0065230774,0.035138898,0.063542545,-0.0033261196
0.022255382,0.066726856,0.09854817,0.027385829,-0.020048805,0.033981837,0.0798122,0.0038936734,-0.017975537,0.010201238
-0.028467646,-0.07485907,-0.08132256,-0.055034753,0.050061524,0.026778176,0.08612736,-0.089194596,0.02694764,0.04228646
-0.061110806,-0.066375904,-0.063506134,-0.06895285,0.039472587,0.034383696,-0.0774767,0.07361668,0.03034876,0.05675261
-0.038421214,-0.06913139,-0.07163165,-0.06931812,0.055087145,-0.05429994,-0.0646933,0.07216743,0.035967626,0.050716735
0.017365735,-0.19291593,0.05722961,-0.023439677,0.17155378,-0.07510544,-0.029583873,-0.10173118,-0.1235283,0.11029435
-0.058580182,0.071457155,0.036667176,0.02494132,0.06097118,-0.029995825,-0.031040663,-0.07558669,0.054723233,0.06675823
0.03063038,0.07899229,0.054745488,0.034336455,-0.10783451,0.05914525,0.05002839,-0.0045244596,-0.010036123,-0.0039433963
-0.014716255,0.011243045,0.018555036,-0.012890374,0.012062347,-0.0220983,-0.018774608,0.029081816,0.027433999,0.056532092
0.041599546,-0.09286918,-0.0975446,0.024813483,-0.0027376593,0.031306487,-0.042006608,0.001166071,0.058426436,-0.090371795
0.009816044,0.04533043,0.008461389,0.034456905,0.000687016,0.06271921,0.026997834,0.028615592,-0.053334925,0.048511706
-0.08539106,0.029415458,-0.030268505,-0.074960224,0.06623223,-0.035709944,0.03959292,-0.052664462,-0.039661065,-0.041096125
0.048758082,0.04708748,0.057209585,0.0050931172,0.004181435,0.03820994,0.061058156,0.006022153,-0.040777326,0.08783879
0.021519259,0.05431157,0.06932664,0.08233957,-0.053345703,0.014763975,0.006240045,0.010480398,-0.050096765,0.06523793
0.05414024,-0.07440505,-0.0648916,-0.0381017,0.04282522,-0.0380719,-0.03706101,0.058359005,-0.06060561,-0.030158035
0.11037443,-0.12606901,0.049803305,-0.03567401,-0.10424174,0.15898883,0.12093484,-0.123656586,0.033886764,-0.20579459
0.02043047,0.039135665,-0.31357822,-0.2533605,0.05434302,0.12438341,0.072943866,-0.103499584,-0.010345554,-0.0520771
-0.015794458,-0.07123146,-0.023781557,0.04275915,-0.05802736,0.08694169,-0.050077427,0.026397316,-0.01819106,-0.06261144
-0.0684826,-0.031355903,0.07054549,-0.041684367,0.02960162,-0.025714189,0.08637961,-0.039668493,-0.09174578,0.08291649
0.017553005,0.058336016,-0.010244731,-0.010225475,-0.0024132547,0.020084724,-0.029983692,-0.021727394,0.030737476,-0.013231738
-0.06488517,0.07851521,0.078344405,0.08267693,0.026199805,-0.03590584,-0.036958653,-0.039542284,0.029619085,-0.047843702
0.05260684,-0.013752751,-0.01862281,-0.024666764,-0.004081515,0.03441864,-0.0056045544,-0.0209405,0.019099807,-0.0030274885
-0.06279457,0.044677693,0.135317,-0.011132823,-0.004765378,0.09633844,0.06582142,-0.02590785,-0.21902138,-0.22707129
-0.05710953,-0.044428866,0.024473736,-0.008889229,-0.0004994162,-0.03509999,0.00858948,0.0036646416,0.011875572,0.048041526
0.030239439,0.04202493,-0.0023907034,0.04554601,-0.027079904,0.05167673,-0.014663815,-0.020162366,-0.05299446,0.00987789
0.06855402,0.055799138,-0.079132244,-0.18187016,0.051263906,-0.13543105,0.054480974,-0.035897385,0.04950892,-0.029600311
0.013418516,0.06325434,-0.06809207,-0.07291557,0.003778351,-0.025384145,-0.051653724,0.07587419,-0.08112174,0.07521478
0.018677816,0.019258222,0.071618035,0.028247392,-0.06469545,0.029971952,0.048160706,0.064589635,-0.020237593,0.02368807
0.05136294,0.042911112,0.098101705,0.0028576504,-0.039653946,0.039043225,0.020626223,0.010715736,-0.023130478,0.009362958
0.040060908,0.0155372815,0.055660505,0.07338202,-0.051139876,0.018498123,0.017319744,0.055731725,-0.042876203,0.027927827
0.059798382,0.040782373,0.008264444,0.04827258,-0.05850571,0.034536075,0.08226091,-0.013994085,-0.013715343,0.07256997
0.093684144,-0.05783759,-0.062184207,0.02175251,0.045063924,0.016959196,-0.024225488,0.0039522354,0.012406514,-0.021253971
0.043496203,-0.032520887,-0.03931609,0.02539767,0.08121683,0.0754773,0.07518542,-0.040510137,-0.081389464,-0.08368552
0.01366142,0.06142558,0.051688828,0.02666853,-0.03029606,0.03457172,0.07900737,0.05145731,-0.013041595,0.06634863
-0.0003483274,-0.03411221,0.022210624,0.019789,0.03091868,-0.040079277,0.018387407,0.056785345,0.0039659413,0.05234636
-0.06924732,0.20753503,0.043404523,0.16166723,0.037360143,-0.17177127,-0.03001083,0.12720934,-0.15800345,-0.12860258
0.009078785,0.05198383,0.049504653,0.036539722,-0.07130361,0.053697653,0.030666841,0.06702155,-0.013723386,0.04120012
0.044426303,-0.0009280786,-0.0013377612,-0.052630838,-0.059641898,-0.030601328,-0.09603421,-0.037701104,0.05425289,-0.07403227
0.13295536,-0.116401635,-0.02479861,-0.11547845,0.110612765,-0.22980271,-0.07429801,0.0692747,-0.09308745,0.15628244
-0.047417298,-0.0313102,0.087070994,0.06654406,0.04018527,-0.07141229,0.038309872,-0.031220848,0.032442633,-0.07620921
0.039688803,0.038963422,0.042294633,-0.032638174,0.0052795704,-0.02673397,-0.057934485,0.08028424,-0.035463568,0.015874501
0.046437297,-0.07068016,-0.042832743,0.049150225,-0.034384143,0.031446606,-0.036591988,-0.082319066,0.042822447,-0.09113693
0.048756085,0.08446399,0.10194828,0.06269804,-0.052296948,0.03460029,0.06606544,0.039977953,-0.025721062,0.043179255
0.06014732,0.118735775,0.104326434,0.08994347,-0.10284313,-0.09929702,-0.11753762,0.007284145,-0.093569785,-0.051784955
0.058349516,0.04545468,0.021788761,0.09706034,0.024917884,0.047862854,-0.022860192,0.0037138434,-0.001459658,0.021525815
-0.0044711907,0.07379967,-0.042765282,-0.016158486,-0.036553606,-0.038774922,-0.049506444,0.07337056,-0.018129911,0.025821935
0.048284043,0.10654564,0.06615855,0.09002374,-0.007069096,0.06343669,0.053213336,0.055802505,-0.018718664,0.055361155
-0.026639389,0.027833622,-0.0048193154,0.008482133,0.0022978275,0.053456213,0.028127082,0.018116487,0.014821357,0.029029425
-0.010373042,-0.0067413733,-0.026469646,-0.040324915,0.029978415,0.022268388,0.054494776,0.05181733,0.008141923,-0.012908925
-0.076241545,-0.0343025,-0.029979527,0.09209894,0.050764535,0.031101609,-0.08522738,-0.02938647,-0.06785986,0.05050837
0.088172674,-0.06929477,-0.06749364,0.041504133,-0.012664554,-0.05014336,-0.056537937,-0.04522488,0.03130606,-0.036222987
0.017674172,0.118384555,0.19740716,0.06396134,-0.014771796,0.1772993,0.018109156,-0.019127967,-0.071845785,-0.071737126
-0.07247255,0.016381266,0.0909444,-0.022661358,-0.065678254,-0.0072804024,-0.03724927,-0.005050249,0.03611678,0.036508054
0.05523513,-0.08997348,-0.023286963,0.04978145,-0.016532592,0.062583745,0.02214777,0.028238105,-0.016496342,0.06065216
0.04427627,-0.08287701,0.035443634,-0.0836224,-0.10469479,0.035159893,0.033246305,-0.01349238,0.12116374,0.039751127
0.067787975,0.0017124593,-0.066676706,-0.10615308,0.03016603,0.038578797,0.02227572,0.13222864,-0.06575837,0.04695751
-0.17505203,-0.059653785,-0.039978,0.05940932,0.09390658,0.2110245,-0.054344162,0.09719123,0.044384852,-0.050149348
0.03610598,0.045009498,0.026002552,0.06873232,-0.003011522,0.056038216,0.04903066,0.070253715,-0.05318242,0.031288274
0.036385387,0.05074315,0.049575195,0.056944817,-0.079611406,0.052071836,0.071628876,0.07273663,-0.036925104,0.028128248
-0.0820822,-0.025339002,-0.09431157,0.02297426,0.016774712,-0.11270523,-0.16473766,0.029091066,-0.090367004,0.24216317
-0.039174292,-0.019171344,-0.038607843,0.016627498,0.027898068,0.014819434,-0.037174214,0.027969513,0.017203413,-0.014525363
